file name, pose_Rx, pose_Ry, pose_Rz, AU01_r, AU02_r, AU04_r, AU05_r, AU06_r, AU07_r, AU09_r, AU10_r, AU12_r, AU14_r, AU15_r, AU17_r, AU20_r, AU23_r, AU25_r, AU26_r, AU45_r, gaze_angle_x, gaze_angle_y,sub,trial,sweep,label,frame
cropped_image_Sub01_Trial01_Sweep01_Label0_01.jpg,-0.025,-0.024,0.023,0.0,0.0,0.39,0.0,0.0,0.0,0.0,0.0,0.0,0.0,0.0,0.6,0.52,0.66,0.19,0.27,0.0,0.02,0.092,1,1,1,0,1
cropped_image_Sub01_Trial01_Sweep01_Label0_05.jpg,-0.016,-0.038,0.023,0.0,0.0,0.31,0.32,0.0,0.0,0.0,0.0,0.0,0.0,0.0,0.43,0.3,0.64,0.13,0.31,0.0,0.032,0.11,1,1,1,0,5
cropped_image_Sub01_Trial01_Sweep01_Label0_09.jpg,-0.023,-0.025,0.023,0.02,0.0,0.47,0.55,0.0,0.0,0.0,0.0,0.0,0.0,0.0,0.55,0.33,0.44,0.14,0.28,0.83,0.087,0.225,1,1,1,0,9
cropped_image_Sub01_Trial01_Sweep01_Label0_13.jpg,-0.032,-0.029,0.023,0.0,0.02,0.53,0.27,0.0,0.0,0.0,0.0,0.0,0.0,0.0,0.49,0.32,0.54,0.0,0.2,0.34,0.055,0.205,1,1,1,0,13
cropped_image_Sub01_Trial01_Sweep01_Label0_17.jpg,-0.015,-0.028,0.027,0.0,0.01,0.4,0.19,0.0,0.0,0.0,0.0,0.0,0.0,0.0,0.61,0.09,0.56,0.0,0.34,0.0,0.018,0.142,1,1,1,0,17
cropped_image_Sub01_Trial01_Sweep01_Label0_21.jpg,-0.02,-0.028,0.025,0.0,0.0,0.4,0.26,0.0,0.0,0.0,0.0,0.0,0.0,0.0,0.48,0.07,0.63,0.1,0.11,0.0,0.015,0.115,1,1,1,0,21
cropped_image_Sub01_Trial01_Sweep01_Label0_25.jpg,-0.024,-0.015,0.028,0.0,0.0,0.25,0.31,0.0,0.0,0.0,0.01,0.0,0.0,0.0,0.56,0.16,0.77,0.0,0.19,0.03,-0.014,0.126,1,1,1,0,25
cropped_image_Sub01_Trial01_Sweep01_Label3_01.jpg,-0.032,-0.04,0.026,0.01,0.0,0.43,0.02,0.0,0.0,0.0,0.0,0.0,0.0,0.0,0.49,0.28,0.51,0.0,0.07,0.0,0.06,0.117,1,1,1,3,1
cropped_image_Sub01_Trial01_Sweep01_Label3_05.jpg,-0.031,-0.04,0.026,0.0,0.0,0.41,0.06,0.0,0.0,0.02,0.0,0.0,0.0,0.0,0.42,0.28,0.34,0.0,0.06,0.0,0.038,0.108,1,1,1,3,5
cropped_image_Sub01_Trial01_Sweep01_Label3_09.jpg,-0.034,-0.039,0.027,0.0,0.0,0.5,0.0,0.0,0.0,0.0,0.0,0.0,0.0,0.0,0.32,0.13,0.35,0.0,0.0,0.0,0.052,0.113,1,1,1,3,9
cropped_image_Sub01_Trial01_Sweep01_Label3_13.jpg,-0.036,-0.035,0.028,0.0,0.0,0.57,0.08,0.0,0.0,0.09,0.02,0.0,0.0,0.0,0.24,0.05,0.31,0.12,0.1,0.0,0.026,0.107,1,1,1,3,13
cropped_image_Sub01_Trial01_Sweep01_Label3_17.jpg,-0.04,-0.034,0.032,0.0,0.0,0.46,0.09,0.0,0.0,0.03,0.0,0.0,0.0,0.0,0.35,0.22,0.39,0.03,0.0,0.02,0.044,0.115,1,1,1,3,17
cropped_image_Sub01_Trial01_Sweep01_Label3_21.jpg,-0.039,-0.031,0.028,0.0,0.0,0.53,0.21,0.0,0.0,0.0,0.0,0.0,0.0,0.0,0.43,0.04,0.3,0.09,0.07,0.01,0.034,0.096,1,1,1,3,21
cropped_image_Sub01_Trial01_Sweep01_Label3_25.jpg,-0.032,-0.041,0.031,0.0,0.0,0.52,0.08,0.0,0.0,0.0,0.0,0.0,0.0,0.0,0.52,0.12,0.34,0.03,0.0,0.01,0.038,0.125,1,1,1,3,25
cropped_image_Sub01_Trial01_Sweep02_Label0_01.jpg,-0.086,-0.029,0.015,0.24,0.05,0.54,0.1,0.0,0.02,0.04,0.07,0.0,0.05,0.0,0.1,0.46,0.52,0.03,0.04,0.07,0.055,0.232,1,1,2,0,1
cropped_image_Sub01_Trial01_Sweep02_Label0_05.jpg,-0.093,-0.027,0.013,0.33,0.21,0.43,0.02,0.0,0.0,0.0,0.0,0.0,0.0,0.0,0.0,0.64,0.57,0.01,0.21,0.0,0.049,0.124,1,1,2,0,5
cropped_image_Sub01_Trial01_Sweep02_Label0_09.jpg,-0.079,-0.031,0.011,0.12,0.02,0.45,0.0,0.0,0.0,0.0,0.0,0.0,0.0,0.0,0.12,0.3,0.31,0.01,0.12,0.06,0.075,0.105,1,1,2,0,9
cropped_image_Sub01_Trial01_Sweep02_Label0_13.jpg,-0.072,-0.036,0.01,0.23,0.16,0.46,0.0,0.0,0.0,0.0,0.0,0.0,0.0,0.0,0.19,0.3,0.37,0.0,0.05,0.07,0.075,0.111,1,1,2,0,13
cropped_image_Sub01_Trial01_Sweep02_Label0_16.jpg,-0.062,-0.046,0.011,0.31,0.19,0.6,0.16,0.0,0.0,0.0,0.0,0.0,0.0,0.0,0.07,0.45,0.37,0.02,0.15,0.49,0.135,0.141,1,1,2,0,16
cropped_image_Sub01_Trial01_Sweep02_Label0_20.jpg,-0.063,-0.034,0.015,0.08,0.03,0.42,0.04,0.0,0.0,0.0,0.0,0.0,0.0,0.0,0.25,0.14,0.41,0.03,0.18,0.0,0.045,0.141,1,1,2,0,20
cropped_image_Sub01_Trial01_Sweep02_Label0_24.jpg,-0.076,-0.032,0.014,0.06,0.04,0.49,0.02,0.0,0.0,0.0,0.0,0.0,0.0,0.0,0.12,0.36,0.46,0.0,0.1,0.02,0.051,0.106,1,1,2,0,24
cropped_image_Sub01_Trial01_Sweep02_Label1_01.jpg,-0.06,-0.032,0.012,0.0,0.0,0.49,0.0,0.0,0.0,0.0,0.0,0.0,0.0,0.0,0.29,0.4,0.33,0.03,0.15,0.03,0.032,0.106,1,1,2,1,1
cropped_image_Sub01_Trial01_Sweep02_Label1_05.jpg,-0.06,-0.028,0.011,0.0,0.0,0.5,0.03,0.0,0.0,0.0,0.0,0.0,0.0,0.0,0.17,0.22,0.3,0.0,0.2,0.0,0.047,0.103,1,1,2,1,5
cropped_image_Sub01_Trial01_Sweep02_Label1_09.jpg,-0.058,-0.033,0.011,0.0,0.0,0.51,0.0,0.0,0.0,0.0,0.0,0.0,0.0,0.0,0.17,0.16,0.29,0.12,0.25,0.07,0.044,0.109,1,1,2,1,9
cropped_image_Sub01_Trial01_Sweep02_Label1_13.jpg,-0.065,-0.029,0.013,0.0,0.0,0.52,0.0,0.0,0.0,0.0,0.0,0.0,0.0,0.0,0.26,0.21,0.42,0.04,0.33,0.03,0.045,0.096,1,1,2,1,13
cropped_image_Sub01_Trial01_Sweep02_Label1_16.jpg,-0.064,-0.03,0.014,0.0,0.0,0.54,0.0,0.0,0.0,0.0,0.0,0.0,0.0,0.0,0.25,0.08,0.37,0.01,0.33,0.0,0.032,0.094,1,1,2,1,16
cropped_image_Sub01_Trial01_Sweep02_Label1_20.jpg,-0.065,-0.028,0.014,0.0,0.0,0.42,0.19,0.0,0.0,0.0,0.0,0.0,0.0,0.0,0.17,0.2,0.36,0.12,0.15,0.07,0.046,0.098,1,1,2,1,20
cropped_image_Sub01_Trial01_Sweep02_Label1_24.jpg,-0.054,-0.035,0.012,0.0,0.0,0.52,0.0,0.0,0.0,0.0,0.0,0.0,0.0,0.0,0.17,0.15,0.29,0.0,0.15,0.0,0.066,0.092,1,1,2,1,24
cropped_image_Sub01_Trial01_Sweep03_Label0_01.jpg,-0.066,-0.041,0.025,0.0,0.0,0.48,0.03,0.0,0.0,0.0,0.0,0.0,0.0,0.0,0.42,0.03,0.07,0.08,0.46,0.21,0.028,0.081,1,1,3,0,1
cropped_image_Sub01_Trial01_Sweep03_Label0_05.jpg,-0.063,-0.053,0.031,0.0,0.0,0.45,0.04,0.0,0.0,0.0,0.0,0.0,0.0,0.05,0.33,0.35,0.01,0.08,0.14,0.03,0.05,0.068,1,1,3,0,5
cropped_image_Sub01_Trial01_Sweep03_Label0_09.jpg,-0.059,-0.046,0.033,0.0,0.0,0.5,0.04,0.0,0.0,0.0,0.0,0.0,0.0,0.0,0.36,0.05,0.0,0.11,0.18,0.0,0.042,0.058,1,1,3,0,9
cropped_image_Sub01_Trial01_Sweep03_Label0_13.jpg,-0.054,-0.043,0.032,0.06,0.0,0.54,0.23,0.0,0.0,0.0,0.0,0.0,0.0,0.0,0.42,0.09,0.01,0.1,0.11,0.0,0.014,0.081,1,1,3,0,13
cropped_image_Sub01_Trial01_Sweep03_Label0_16.jpg,-0.062,-0.046,0.035,0.01,0.0,0.54,0.14,0.0,0.0,0.0,0.0,0.0,0.0,0.0,0.5,0.19,0.0,0.13,0.18,0.0,0.045,0.071,1,1,3,0,16
cropped_image_Sub01_Trial01_Sweep03_Label0_20.jpg,-0.063,-0.052,0.034,0.01,0.03,0.59,0.09,0.0,0.0,0.0,0.0,0.0,0.0,0.08,0.48,0.26,0.0,0.05,0.14,0.0,0.044,0.083,1,1,3,0,20
cropped_image_Sub01_Trial01_Sweep03_Label0_24.jpg,-0.056,-0.053,0.035,0.02,0.0,0.56,0.0,0.0,0.0,0.0,0.0,0.0,0.0,0.01,0.26,0.14,0.01,0.11,0.15,0.0,0.053,0.083,1,1,3,0,24
cropped_image_Sub01_Trial01_Sweep03_Label4_01.jpg,-0.071,-0.033,0.033,0.0,0.0,0.47,0.02,0.0,0.0,0.0,0.0,0.0,0.0,0.04,0.28,0.1,0.0,0.3,0.16,0.0,0.001,0.07,1,1,3,4,1
cropped_image_Sub01_Trial01_Sweep03_Label4_05.jpg,-0.06,-0.04,0.025,0.03,0.03,0.58,0.0,0.0,0.0,0.0,0.0,0.0,0.0,0.14,0.23,0.18,0.0,0.13,0.01,0.15,0.067,0.097,1,1,3,4,5
cropped_image_Sub01_Trial01_Sweep03_Label4_09.jpg,-0.047,-0.04,0.024,0.0,0.02,0.53,0.0,0.0,0.0,0.0,0.0,0.0,0.0,0.01,0.21,0.12,0.0,0.09,0.02,0.11,0.05,0.083,1,1,3,4,9
cropped_image_Sub01_Trial01_Sweep03_Label4_13.jpg,-0.055,-0.042,0.027,0.0,0.0,0.53,0.0,0.0,0.0,0.0,0.0,0.0,0.0,0.05,0.3,0.15,0.0,0.16,0.03,0.0,0.063,0.086,1,1,3,4,13
cropped_image_Sub01_Trial01_Sweep03_Label4_16.jpg,-0.059,-0.026,0.029,0.0,0.0,0.49,0.06,0.0,0.0,0.0,0.0,0.0,0.0,0.07,0.34,0.09,0.01,0.29,0.26,0.0,0.024,0.092,1,1,3,4,16
cropped_image_Sub01_Trial01_Sweep03_Label4_20.jpg,-0.072,-0.017,0.033,0.0,0.0,0.47,0.06,0.0,0.0,0.0,0.0,0.0,0.0,0.15,0.4,0.11,0.02,0.15,0.31,0.0,0.007,0.051,1,1,3,4,20
cropped_image_Sub01_Trial01_Sweep03_Label4_24.jpg,-0.061,-0.033,0.029,0.0,0.0,0.5,0.2,0.0,0.0,0.0,0.0,0.0,0.0,0.06,0.34,0.01,0.06,0.06,0.11,0.0,0.03,0.08,1,1,3,4,24
cropped_image_Sub01_Trial01_Sweep04_Label0_01.jpg,-0.09,-0.039,0.02,0.0,0.0,0.58,0.0,0.0,0.0,0.01,0.0,0.0,0.0,0.0,0.22,0.16,0.01,0.28,0.11,0.0,0.05,0.056,1,1,4,0,1
cropped_image_Sub01_Trial01_Sweep04_Label0_05.jpg,-0.095,-0.039,0.019,0.01,0.0,0.54,0.0,0.0,0.0,0.0,0.0,0.0,0.0,0.0,0.1,0.06,0.02,0.06,0.03,0.0,0.058,0.062,1,1,4,0,5
cropped_image_Sub01_Trial01_Sweep04_Label0_09.jpg,-0.092,-0.039,0.018,0.0,0.0,0.52,0.03,0.0,0.0,0.04,0.0,0.0,0.0,0.0,0.0,0.0,0.0,0.03,0.05,0.02,0.05,0.044,1,1,4,0,9
cropped_image_Sub01_Trial01_Sweep04_Label0_13.jpg,-0.101,-0.039,0.023,0.02,0.0,0.45,0.0,0.0,0.0,0.01,0.0,0.0,0.0,0.01,0.09,0.01,0.01,0.13,0.12,0.03,0.06,0.062,1,1,4,0,13
cropped_image_Sub01_Trial01_Sweep04_Label0_17.jpg,-0.082,-0.059,0.016,0.03,0.03,0.45,0.0,0.0,0.0,0.0,0.0,0.0,0.0,0.0,0.09,0.03,0.0,0.06,0.01,0.0,0.057,0.07,1,1,4,0,17
cropped_image_Sub01_Trial01_Sweep04_Label0_21.jpg,-0.094,-0.047,0.022,0.0,0.01,0.44,0.0,0.0,0.0,0.0,0.0,0.0,0.0,0.06,0.05,0.06,0.0,0.14,0.12,0.0,0.055,0.056,1,1,4,0,21
cropped_image_Sub01_Trial01_Sweep04_Label0_25.jpg,-0.091,-0.052,0.022,0.04,0.0,0.53,0.0,0.0,0.0,0.04,0.0,0.0,0.0,0.0,0.06,0.12,0.0,0.06,0.13,0.0,0.069,0.069,1,1,4,0,25
cropped_image_Sub01_Trial01_Sweep04_Label3_01.jpg,-0.083,-0.06,0.02,0.28,0.23,0.73,0.16,0.0,0.0,0.0,0.0,0.0,0.0,0.25,0.15,0.17,0.0,0.12,0.04,0.56,0.19,0.152,1,1,4,3,1
cropped_image_Sub01_Trial01_Sweep04_Label3_05.jpg,-0.097,-0.048,0.024,0.01,0.05,0.58,0.0,0.0,0.0,0.0,0.0,0.0,0.0,0.0,0.14,0.04,0.0,0.02,0.1,0.02,0.067,0.096,1,1,4,3,5
cropped_image_Sub01_Trial01_Sweep04_Label3_09.jpg,-0.101,-0.043,0.025,0.06,0.0,0.54,0.0,0.0,0.0,0.0,0.0,0.0,0.0,0.0,0.07,0.02,0.0,0.12,0.09,0.03,0.057,0.08,1,1,4,3,9
cropped_image_Sub01_Trial01_Sweep04_Label3_13.jpg,-0.097,-0.049,0.024,0.04,0.09,0.49,0.0,0.0,0.0,0.0,0.0,0.0,0.0,0.0,0.09,0.09,0.0,0.2,0.1,0.0,0.047,0.08,1,1,4,3,13
cropped_image_Sub01_Trial01_Sweep04_Label3_17.jpg,-0.094,-0.053,0.02,0.0,0.01,0.5,0.0,0.0,0.0,0.03,0.0,0.0,0.0,0.01,0.33,0.04,0.0,0.05,0.2,0.0,0.069,0.061,1,1,4,3,17
cropped_image_Sub01_Trial01_Sweep04_Label3_21.jpg,-0.086,-0.052,0.02,0.04,0.0,0.53,0.0,0.0,0.0,0.0,0.0,0.0,0.0,0.1,0.13,0.03,0.0,0.05,0.2,0.0,0.073,0.089,1,1,4,3,21
cropped_image_Sub01_Trial01_Sweep04_Label3_25.jpg,-0.094,-0.047,0.024,0.0,0.02,0.44,0.0,0.0,0.0,0.02,0.0,0.0,0.0,0.06,0.01,0.04,0.0,0.06,0.09,0.0,0.058,0.08,1,1,4,3,25
cropped_image_Sub01_Trial01_Sweep05_Label0_01.jpg,-0.084,-0.052,0.027,0.02,0.01,0.5,0.0,0.0,0.0,0.0,0.0,0.0,0.0,0.04,0.1,0.08,0.0,0.03,0.04,0.02,0.053,0.073,1,1,5,0,1
cropped_image_Sub01_Trial01_Sweep05_Label0_05.jpg,-0.078,-0.051,0.028,0.03,0.01,0.5,0.0,0.0,0.0,0.0,0.0,0.0,0.0,0.19,0.18,0.05,0.0,0.1,0.07,0.04,0.036,0.068,1,1,5,0,5
cropped_image_Sub01_Trial01_Sweep05_Label0_10.jpg,-0.083,-0.055,0.029,0.03,0.0,0.61,0.0,0.0,0.0,0.0,0.0,0.0,0.0,0.07,0.13,0.01,0.0,0.07,0.09,0.04,0.063,0.059,1,1,5,0,10
cropped_image_Sub01_Trial01_Sweep05_Label0_14.jpg,-0.072,-0.074,0.029,0.37,0.13,0.62,0.05,0.0,0.0,0.03,0.0,0.0,0.0,0.24,0.09,0.08,0.0,0.05,0.04,0.06,0.077,0.082,1,1,5,0,14
cropped_image_Sub01_Trial01_Sweep05_Label0_19.jpg,-0.079,-0.071,0.028,0.16,0.06,0.57,0.0,0.0,0.0,0.05,0.0,0.0,0.0,0.14,0.16,0.1,0.0,0.1,0.03,0.0,0.073,0.079,1,1,5,0,19
cropped_image_Sub01_Trial01_Sweep05_Label0_23.jpg,-0.085,-0.066,0.033,0.21,0.06,0.61,0.0,0.0,0.0,0.0,0.0,0.0,0.0,0.09,0.07,0.03,0.0,0.1,0.0,0.0,0.073,0.049,1,1,5,0,23
cropped_image_Sub01_Trial01_Sweep05_Label0_28.jpg,-0.085,-0.068,0.034,0.12,0.01,0.56,0.0,0.0,0.0,0.03,0.0,0.0,0.0,0.07,0.2,0.03,0.0,0.04,0.09,0.0,0.078,0.057,1,1,5,0,28
cropped_image_Sub01_Trial01_Sweep05_Label1_01.jpg,-0.093,-0.057,0.031,0.09,0.0,0.57,0.0,0.0,0.0,0.02,0.0,0.0,0.0,0.14,0.09,0.09,0.0,0.06,0.11,0.0,0.052,0.037,1,1,5,1,1
cropped_image_Sub01_Trial01_Sweep05_Label1_05.jpg,-0.091,-0.053,0.028,0.08,0.0,0.46,0.0,0.0,0.0,0.0,0.0,0.0,0.0,0.02,0.13,0.03,0.0,0.09,0.04,0.02,0.047,0.061,1,1,5,1,5
cropped_image_Sub01_Trial01_Sweep05_Label1_10.jpg,-0.085,-0.052,0.026,0.04,0.0,0.62,0.03,0.0,0.0,0.03,0.0,0.0,0.0,0.13,0.11,0.19,0.0,0.07,0.13,0.11,0.064,0.07,1,1,5,1,10
cropped_image_Sub01_Trial01_Sweep05_Label1_14.jpg,-0.091,-0.058,0.028,0.21,0.07,0.51,0.0,0.0,0.0,0.0,0.0,0.0,0.0,0.15,0.18,0.02,0.0,0.09,0.03,0.0,0.055,0.059,1,1,5,1,14
cropped_image_Sub01_Trial01_Sweep05_Label1_19.jpg,-0.089,-0.049,0.028,0.06,0.0,0.5,0.0,0.0,0.0,0.0,0.0,0.0,0.0,0.03,0.13,0.08,0.01,0.07,0.01,0.02,0.064,0.082,1,1,5,1,19
cropped_image_Sub01_Trial01_Sweep05_Label1_23.jpg,-0.102,-0.039,0.026,0.01,0.0,0.48,0.0,0.0,0.0,0.06,0.0,0.0,0.0,0.12,0.14,0.0,0.0,0.15,0.18,0.0,0.021,0.055,1,1,5,1,23
cropped_image_Sub01_Trial01_Sweep05_Label1_28.jpg,-0.091,-0.052,0.026,0.06,0.02,0.51,0.0,0.0,0.0,0.0,0.0,0.0,0.0,0.13,0.26,0.0,0.0,0.09,0.2,0.0,0.06,0.066,1,1,5,1,28
cropped_image_Sub01_Trial01_Sweep06_Label0_01.jpg,-0.088,-0.03,0.026,0.0,0.0,0.45,0.0,0.0,0.0,0.0,0.0,0.0,0.0,0.11,0.27,0.15,0.1,0.18,0.16,0.0,0.038,0.087,1,1,6,0,1
cropped_image_Sub01_Trial01_Sweep06_Label0_05.jpg,-0.078,-0.033,0.018,0.0,0.08,0.53,0.04,0.0,0.0,0.0,0.0,0.0,0.0,0.08,0.36,0.04,0.02,0.1,0.11,0.03,0.058,0.101,1,1,6,0,5
cropped_image_Sub01_Trial01_Sweep06_Label0_09.jpg,-0.073,-0.038,0.018,0.0,0.0,0.61,0.0,0.0,0.0,0.0,0.0,0.0,0.0,0.21,0.48,0.05,0.0,0.12,0.16,0.0,0.052,0.072,1,1,6,0,9
cropped_image_Sub01_Trial01_Sweep06_Label0_13.jpg,-0.068,-0.037,0.021,0.0,0.0,0.66,0.0,0.0,0.0,0.0,0.0,0.0,0.0,0.23,0.38,0.0,0.0,0.07,0.22,0.0,0.052,0.083,1,1,6,0,13
cropped_image_Sub01_Trial01_Sweep06_Label0_18.jpg,-0.067,-0.044,0.024,0.0,0.0,0.63,0.0,0.0,0.0,0.0,0.0,0.0,0.0,0.17,0.17,0.0,0.0,0.19,0.0,0.0,0.066,0.113,1,1,6,0,18
cropped_image_Sub01_Trial01_Sweep06_Label0_22.jpg,-0.07,-0.041,0.024,0.0,0.0,0.53,0.0,0.0,0.0,0.03,0.0,0.0,0.0,0.3,0.31,0.03,0.0,0.14,0.14,0.0,0.052,0.078,1,1,6,0,22
cropped_image_Sub01_Trial01_Sweep06_Label0_26.jpg,-0.069,-0.047,0.019,0.0,0.0,0.59,0.01,0.0,0.0,0.0,0.0,0.0,0.0,0.05,0.18,0.0,0.0,0.08,0.07,0.11,0.056,0.075,1,1,6,0,26
cropped_image_Sub01_Trial01_Sweep06_Label2_01.jpg,-0.069,-0.05,0.02,0.0,0.0,0.55,0.0,0.0,0.0,0.0,0.0,0.0,0.0,0.03,0.29,0.07,0.03,0.12,0.04,0.04,0.065,0.095,1,1,6,2,1
cropped_image_Sub01_Trial01_Sweep06_Label2_05.jpg,-0.067,-0.043,0.023,0.0,0.0,0.48,0.0,0.0,0.0,0.0,0.0,0.0,0.0,0.18,0.39,0.08,0.0,0.09,0.17,0.0,0.065,0.085,1,1,6,2,5
cropped_image_Sub01_Trial01_Sweep06_Label2_09.jpg,-0.071,-0.036,0.022,0.0,0.0,0.45,0.0,0.0,0.0,0.0,0.0,0.0,0.0,0.08,0.25,0.06,0.05,0.05,0.14,0.0,0.032,0.076,1,1,6,2,9
cropped_image_Sub01_Trial01_Sweep06_Label2_13.jpg,-0.07,-0.041,0.023,0.0,0.0,0.54,0.0,0.0,0.0,0.0,0.0,0.0,0.0,0.02,0.25,0.0,0.05,0.05,0.17,0.04,0.051,0.084,1,1,6,2,13
cropped_image_Sub01_Trial01_Sweep06_Label2_18.jpg,-0.056,-0.05,0.021,0.0,0.01,0.47,0.01,0.0,0.0,0.0,0.0,0.0,0.0,0.05,0.47,0.01,0.0,0.06,0.05,0.07,0.078,0.088,1,1,6,2,18
cropped_image_Sub01_Trial01_Sweep06_Label2_22.jpg,-0.052,-0.052,0.024,0.0,0.0,0.55,0.0,0.0,0.0,0.0,0.0,0.0,0.0,0.13,0.47,0.06,0.08,0.06,0.0,0.06,0.043,0.091,1,1,6,2,22
cropped_image_Sub01_Trial01_Sweep06_Label2_26.jpg,-0.061,-0.045,0.023,0.0,0.04,0.38,0.16,0.0,0.0,0.0,0.0,0.0,0.0,0.15,0.28,0.06,0.05,0.08,0.27,0.06,0.047,0.081,1,1,6,2,26
cropped_image_Sub01_Trial01_Sweep07_Label0_01.jpg,-0.035,-0.032,0.022,0.0,0.0,0.61,0.12,0.0,0.0,0.0,0.0,0.0,0.0,0.2,0.34,0.0,0.12,0.1,0.18,0.07,0.044,0.099,1,1,7,0,1
cropped_image_Sub01_Trial01_Sweep07_Label0_04.jpg,-0.032,-0.029,0.022,0.0,0.0,0.7,0.16,0.0,0.0,0.0,0.0,0.0,0.0,0.31,0.66,0.0,0.11,0.0,0.29,0.0,0.022,0.104,1,1,7,0,4
cropped_image_Sub01_Trial01_Sweep07_Label0_07.jpg,-0.035,-0.035,0.023,0.0,0.0,0.57,0.15,0.0,0.0,0.0,0.0,0.0,0.0,0.29,0.7,0.0,0.17,0.09,0.25,0.0,0.024,0.111,1,1,7,0,7
cropped_image_Sub01_Trial01_Sweep07_Label0_10.jpg,-0.037,-0.038,0.021,0.0,0.0,0.57,0.21,0.0,0.0,0.0,0.0,0.0,0.0,0.17,0.66,0.0,0.06,0.18,0.26,0.07,0.027,0.092,1,1,7,0,10
cropped_image_Sub01_Trial01_Sweep07_Label0_14.jpg,-0.035,-0.031,0.021,0.0,0.0,0.63,0.23,0.0,0.0,0.0,0.0,0.0,0.0,0.11,0.54,0.0,0.04,0.15,0.39,0.1,0.028,0.101,1,1,7,0,14
cropped_image_Sub01_Trial01_Sweep07_Label0_17.jpg,-0.032,-0.034,0.018,0.0,0.0,0.62,0.2,0.0,0.0,0.0,0.0,0.0,0.0,0.33,0.59,0.0,0.07,0.12,0.17,0.0,0.04,0.089,1,1,7,0,17
cropped_image_Sub01_Trial01_Sweep07_Label0_20.jpg,-0.038,-0.035,0.019,0.0,0.0,0.64,0.3,0.0,0.0,0.0,0.0,0.0,0.0,0.16,0.61,0.0,0.08,0.14,0.26,0.0,0.043,0.126,1,1,7,0,20
cropped_image_Sub01_Trial01_Sweep07_Label2_01.jpg,-0.036,-0.028,0.021,0.0,0.0,0.68,0.09,0.0,0.0,0.0,0.0,0.0,0.0,0.15,0.56,0.01,0.03,0.13,0.31,0.05,0.013,0.094,1,1,7,2,1
cropped_image_Sub01_Trial01_Sweep07_Label2_04.jpg,-0.036,-0.034,0.019,0.0,0.0,0.62,0.04,0.0,0.0,0.0,0.0,0.0,0.0,0.36,0.5,0.0,0.06,0.16,0.12,0.0,0.034,0.099,1,1,7,2,4
cropped_image_Sub01_Trial01_Sweep07_Label2_07.jpg,-0.036,-0.029,0.018,0.0,0.0,0.63,0.06,0.0,0.0,0.0,0.0,0.0,0.0,0.18,0.48,0.0,0.04,0.06,0.3,0.05,0.039,0.095,1,1,7,2,7
cropped_image_Sub01_Trial01_Sweep07_Label2_10.jpg,-0.035,-0.031,0.017,0.0,0.0,0.57,0.0,0.0,0.0,0.0,0.0,0.0,0.0,0.19,0.58,0.0,0.0,0.2,0.15,0.02,0.023,0.067,1,1,7,2,10
cropped_image_Sub01_Trial01_Sweep07_Label2_14.jpg,-0.031,-0.04,0.019,0.0,0.0,0.57,0.05,0.0,0.0,0.0,0.0,0.0,0.0,0.23,0.67,0.0,0.05,0.03,0.34,0.01,0.027,0.095,1,1,7,2,14
cropped_image_Sub01_Trial01_Sweep07_Label2_17.jpg,-0.033,-0.034,0.022,0.0,0.0,0.67,0.07,0.0,0.0,0.0,0.0,0.0,0.0,0.35,0.71,0.0,0.05,0.05,0.23,0.0,0.034,0.105,1,1,7,2,17
cropped_image_Sub01_Trial01_Sweep07_Label2_20.jpg,-0.037,-0.031,0.022,0.0,0.0,0.68,0.09,0.0,0.0,0.0,0.0,0.0,0.0,0.22,0.69,0.0,0.04,0.12,0.3,0.0,0.021,0.087,1,1,7,2,20
cropped_image_Sub01_Trial01_Sweep08_Label0_01.jpg,-0.065,-0.039,0.02,0.0,0.02,0.54,0.0,0.0,0.0,0.0,0.0,0.0,0.0,0.14,0.49,0.08,0.01,0.17,0.17,0.0,0.034,0.084,1,1,8,0,1
cropped_image_Sub01_Trial01_Sweep08_Label0_06.jpg,-0.058,-0.042,0.02,0.0,0.0,0.55,0.0,0.0,0.0,0.0,0.0,0.0,0.0,0.18,0.46,0.04,0.01,0.09,0.06,0.0,0.041,0.09,1,1,8,0,6
cropped_image_Sub01_Trial01_Sweep08_Label0_11.jpg,-0.062,-0.036,0.022,0.0,0.0,0.57,0.1,0.0,0.0,0.0,0.0,0.0,0.0,0.33,0.48,0.06,0.01,0.02,0.0,0.0,0.047,0.083,1,1,8,0,11
cropped_image_Sub01_Trial01_Sweep08_Label0_16.jpg,-0.069,-0.024,0.021,0.0,0.0,0.47,0.09,0.0,0.0,0.0,0.0,0.0,0.0,0.37,0.55,0.0,0.05,0.11,0.17,0.04,0.033,0.074,1,1,8,0,16
cropped_image_Sub01_Trial01_Sweep08_Label0_20.jpg,-0.044,-0.046,0.02,0.0,0.0,0.54,0.02,0.0,0.0,0.0,0.0,0.0,0.0,0.25,0.59,0.01,0.03,0.05,0.01,0.0,0.007,0.074,1,1,8,0,20
cropped_image_Sub01_Trial01_Sweep08_Label0_25.jpg,-0.041,-0.049,0.022,0.0,0.0,0.58,0.08,0.0,0.0,0.0,0.0,0.0,0.0,0.21,0.76,0.0,0.01,0.13,0.02,0.0,0.034,0.099,1,1,8,0,25
cropped_image_Sub01_Trial01_Sweep08_Label0_30.jpg,-0.04,-0.053,0.021,0.0,0.0,0.53,0.08,0.0,0.0,0.0,0.0,0.0,0.0,0.21,0.62,0.07,0.03,0.16,0.03,0.04,0.039,0.068,1,1,8,0,30
cropped_image_Sub01_Trial01_Sweep08_Label4_01.jpg,-0.044,-0.043,0.022,0.0,0.0,0.56,0.0,0.0,0.0,0.0,0.0,0.0,0.0,0.08,0.44,0.02,0.01,0.14,0.02,0.0,0.029,0.073,1,1,8,4,1
cropped_image_Sub01_Trial01_Sweep08_Label4_06.jpg,-0.061,-0.027,0.022,0.0,0.0,0.51,0.1,0.0,0.0,0.0,0.0,0.0,0.0,0.26,0.41,0.01,0.02,0.16,0.06,0.04,0.031,0.08,1,1,8,4,6
cropped_image_Sub01_Trial01_Sweep08_Label4_11.jpg,-0.053,-0.033,0.02,0.0,0.0,0.46,0.16,0.0,0.0,0.0,0.0,0.0,0.0,0.16,0.46,0.0,0.01,0.19,0.14,0.04,0.034,0.094,1,1,8,4,11
cropped_image_Sub01_Trial01_Sweep08_Label4_16.jpg,-0.053,-0.032,0.021,0.0,0.0,0.62,0.05,0.0,0.0,0.0,0.0,0.0,0.0,0.23,0.44,0.0,0.0,0.19,0.13,0.1,0.038,0.08,1,1,8,4,16
cropped_image_Sub01_Trial01_Sweep08_Label4_20.jpg,-0.053,-0.033,0.023,0.0,0.0,0.53,0.0,0.0,0.0,0.01,0.0,0.0,0.0,0.16,0.36,0.04,0.05,0.04,0.2,0.12,0.027,0.096,1,1,8,4,20
cropped_image_Sub01_Trial01_Sweep08_Label4_25.jpg,-0.05,-0.044,0.025,0.0,0.0,0.63,0.05,0.0,0.0,0.0,0.0,0.0,0.0,0.15,0.59,0.02,0.02,0.07,0.12,0.0,0.04,0.092,1,1,8,4,25
cropped_image_Sub01_Trial01_Sweep08_Label4_30.jpg,-0.052,-0.038,0.026,0.0,0.0,0.53,0.01,0.0,0.0,0.0,0.0,0.0,0.0,0.23,0.47,0.0,0.05,0.06,0.07,0.0,0.03,0.091,1,1,8,4,30
cropped_image_Sub01_Trial01_Sweep09_Label0_01.jpg,-0.053,-0.04,0.021,0.0,0.0,0.49,0.03,0.0,0.0,0.0,0.0,0.0,0.0,0.35,0.46,0.02,0.12,0.11,0.02,0.0,0.036,0.081,1,1,9,0,1
cropped_image_Sub01_Trial01_Sweep09_Label0_05.jpg,-0.051,-0.038,0.019,0.0,0.0,0.47,0.01,0.0,0.0,0.0,0.0,0.0,0.0,0.35,0.55,0.0,0.04,0.01,0.12,0.04,0.031,0.097,1,1,9,0,5
cropped_image_Sub01_Trial01_Sweep09_Label0_08.jpg,-0.055,-0.039,0.02,0.0,0.0,0.58,0.06,0.0,0.0,0.0,0.0,0.0,0.0,0.46,0.78,0.0,0.12,0.0,0.06,0.11,0.029,0.083,1,1,9,0,8
cropped_image_Sub01_Trial01_Sweep09_Label0_12.jpg,-0.052,-0.04,0.019,0.0,0.0,0.52,0.0,0.0,0.0,0.0,0.0,0.0,0.0,0.3,0.73,0.0,0.08,0.02,0.15,0.0,0.054,0.09,1,1,9,0,12
cropped_image_Sub01_Trial01_Sweep09_Label0_15.jpg,-0.051,-0.036,0.021,0.0,0.0,0.52,0.0,0.0,0.0,0.0,0.0,0.0,0.0,0.24,0.48,0.0,0.0,0.07,0.07,0.0,0.015,0.095,1,1,9,0,15
cropped_image_Sub01_Trial01_Sweep09_Label0_19.jpg,-0.05,-0.041,0.02,0.0,0.0,0.47,0.0,0.0,0.0,0.0,0.0,0.0,0.0,0.18,0.58,0.0,0.03,0.12,0.12,0.0,0.038,0.083,1,1,9,0,19
cropped_image_Sub01_Trial01_Sweep09_Label0_22.jpg,-0.053,-0.038,0.019,0.0,0.0,0.59,0.0,0.0,0.0,0.0,0.0,0.0,0.0,0.25,0.73,0.07,0.11,0.08,0.15,0.0,0.017,0.082,1,1,9,0,22
cropped_image_Sub01_Trial01_Sweep09_Label3_01.jpg,-0.052,-0.04,0.017,0.0,0.0,0.55,0.0,0.0,0.0,0.0,0.0,0.0,0.0,0.3,0.48,0.0,0.11,0.0,0.21,0.05,0.057,0.125,1,1,9,3,1
cropped_image_Sub01_Trial01_Sweep09_Label3_05.jpg,-0.055,-0.04,0.021,0.0,0.0,0.54,0.01,0.0,0.0,0.0,0.0,0.0,0.0,0.32,0.81,0.17,0.09,0.08,0.04,0.0,0.033,0.087,1,1,9,3,5
cropped_image_Sub01_Trial01_Sweep09_Label3_08.jpg,-0.056,-0.037,0.02,0.0,0.0,0.73,0.0,0.0,0.0,0.0,0.0,0.0,0.0,0.13,0.76,0.0,0.05,0.0,0.11,0.02,0.048,0.094,1,1,9,3,8
cropped_image_Sub01_Trial01_Sweep09_Label3_12.jpg,-0.057,-0.046,0.023,0.0,0.04,0.58,0.0,0.0,0.0,0.0,0.0,0.0,0.0,0.29,0.65,0.01,0.01,0.09,0.14,0.0,0.061,0.104,1,1,9,3,12
cropped_image_Sub01_Trial01_Sweep09_Label3_15.jpg,-0.05,-0.048,0.022,0.0,0.0,0.71,0.04,0.0,0.0,0.0,0.0,0.0,0.0,0.32,0.66,0.05,0.05,0.01,0.18,0.0,0.043,0.083,1,1,9,3,15
cropped_image_Sub01_Trial01_Sweep09_Label3_19.jpg,-0.052,-0.046,0.018,0.0,0.0,0.61,0.11,0.0,0.0,0.0,0.0,0.0,0.0,0.21,0.69,0.0,0.04,0.04,0.16,0.07,0.029,0.103,1,1,9,3,19
cropped_image_Sub01_Trial01_Sweep09_Label3_22.jpg,-0.057,-0.037,0.018,0.0,0.0,0.56,0.09,0.0,0.0,0.0,0.0,0.0,0.0,0.24,0.65,0.16,0.04,0.04,0.34,0.0,0.055,0.102,1,1,9,3,22
cropped_image_Sub01_Trial01_Sweep10_Label0_01.jpg,-0.112,-0.03,0.033,0.0,0.0,0.58,0.12,0.0,0.0,0.0,0.0,0.0,0.0,0.37,0.39,0.09,0.08,0.07,0.15,0.0,0.024,0.035,1,1,10,0,1
cropped_image_Sub01_Trial01_Sweep10_Label0_05.jpg,-0.111,-0.038,0.033,0.15,0.0,0.52,0.0,0.0,0.0,0.02,0.0,0.0,0.0,0.15,0.36,0.08,0.0,0.06,0.04,0.0,0.046,0.041,1,1,10,0,5
cropped_image_Sub01_Trial01_Sweep10_Label0_10.jpg,-0.108,-0.037,0.031,0.0,0.0,0.62,0.0,0.0,0.0,0.01,0.0,0.0,0.0,0.13,0.38,0.15,0.04,0.0,0.13,0.07,0.048,0.039,1,1,10,0,10
cropped_image_Sub01_Trial01_Sweep10_Label0_14.jpg,-0.095,-0.04,0.031,0.04,0.0,0.51,0.01,0.0,0.0,0.02,0.0,0.0,0.0,0.08,0.34,0.02,0.0,0.02,0.08,0.0,0.029,0.059,1,1,10,0,14
cropped_image_Sub01_Trial01_Sweep10_Label0_19.jpg,-0.1,-0.04,0.033,0.04,0.0,0.53,0.06,0.0,0.0,0.0,0.0,0.0,0.0,0.16,0.28,0.05,0.0,0.04,0.16,0.0,0.059,0.046,1,1,10,0,19
cropped_image_Sub01_Trial01_Sweep10_Label0_23.jpg,-0.087,-0.047,0.03,0.03,0.0,0.48,0.09,0.0,0.0,0.0,0.0,0.0,0.0,0.14,0.45,0.0,0.02,0.06,0.07,0.0,0.068,0.064,1,1,10,0,23
cropped_image_Sub01_Trial01_Sweep10_Label0_28.jpg,-0.091,-0.043,0.026,0.0,0.0,0.52,0.0,0.0,0.0,0.01,0.0,0.0,0.0,0.09,0.42,0.03,0.0,0.0,0.04,0.03,0.057,0.067,1,1,10,0,28
cropped_image_Sub01_Trial01_Sweep10_Label3_01.jpg,-0.088,-0.037,0.034,0.0,0.0,0.46,0.01,0.0,0.0,0.02,0.0,0.0,0.0,0.38,0.52,0.02,0.0,0.03,0.27,0.0,0.038,0.062,1,1,10,3,1
cropped_image_Sub01_Trial01_Sweep10_Label3_05.jpg,-0.093,-0.043,0.031,0.03,0.05,0.53,0.01,0.0,0.0,0.0,0.0,0.0,0.0,0.03,0.48,0.17,0.01,0.01,0.31,0.0,0.063,0.075,1,1,10,3,5
cropped_image_Sub01_Trial01_Sweep10_Label3_10.jpg,-0.096,-0.033,0.032,0.0,0.0,0.48,0.0,0.0,0.0,0.0,0.0,0.0,0.0,0.14,0.52,0.09,0.0,0.0,0.1,0.0,0.052,0.082,1,1,10,3,10
cropped_image_Sub01_Trial01_Sweep10_Label3_14.jpg,-0.098,-0.037,0.033,0.0,0.0,0.41,0.02,0.0,0.0,0.0,0.0,0.0,0.0,0.21,0.38,0.03,0.03,0.04,0.05,0.02,0.03,0.048,1,1,10,3,14
cropped_image_Sub01_Trial01_Sweep10_Label3_19.jpg,-0.091,-0.043,0.03,0.0,0.0,0.45,0.05,0.0,0.0,0.0,0.0,0.0,0.0,0.23,0.55,0.08,0.0,0.0,0.08,0.01,0.049,0.059,1,1,10,3,19
cropped_image_Sub01_Trial01_Sweep10_Label3_23.jpg,-0.103,-0.035,0.03,0.0,0.0,0.49,0.07,0.0,0.0,0.0,0.0,0.0,0.0,0.09,0.45,0.07,0.01,0.1,0.12,0.0,0.054,0.055,1,1,10,3,23
cropped_image_Sub01_Trial01_Sweep10_Label3_28.jpg,-0.098,-0.037,0.028,0.0,0.0,0.57,0.07,0.0,0.0,0.0,0.0,0.0,0.0,0.21,0.43,0.04,0.02,0.17,0.06,0.0,0.053,0.054,1,1,10,3,28
cropped_image_Sub01_Trial01_Sweep11_Label0_01.jpg,-0.095,-0.041,0.023,0.04,0.0,0.52,0.01,0.0,0.0,0.01,0.0,0.0,0.0,0.05,0.42,0.09,0.1,0.05,0.08,0.0,0.074,0.103,1,1,11,0,1
cropped_image_Sub01_Trial01_Sweep11_Label0_05.jpg,-0.097,-0.039,0.018,0.08,0.0,0.49,0.0,0.0,0.0,0.03,0.0,0.0,0.0,0.0,0.15,0.02,0.05,0.0,0.12,0.04,0.071,0.082,1,1,11,0,5
cropped_image_Sub01_Trial01_Sweep11_Label0_09.jpg,-0.103,-0.031,0.02,0.12,0.0,0.46,0.0,0.0,0.0,0.04,0.0,0.0,0.0,0.0,0.16,0.16,0.07,0.0,0.07,0.0,0.055,0.072,1,1,11,0,9
cropped_image_Sub01_Trial01_Sweep11_Label0_13.jpg,-0.094,-0.044,0.02,0.0,0.0,0.51,0.0,0.0,0.0,0.05,0.0,0.0,0.0,0.0,0.23,0.15,0.0,0.08,0.11,0.09,0.076,0.109,1,1,11,0,13
cropped_image_Sub01_Trial01_Sweep11_Label0_18.jpg,-0.097,-0.038,0.02,0.01,0.0,0.58,0.0,0.0,0.0,0.02,0.0,0.0,0.0,0.04,0.31,0.08,0.14,0.04,0.07,0.0,0.09,0.079,1,1,11,0,18
cropped_image_Sub01_Trial01_Sweep11_Label0_22.jpg,-0.094,-0.04,0.021,0.0,0.0,0.57,0.0,0.0,0.0,0.03,0.0,0.0,0.0,0.0,0.41,0.26,0.05,0.04,0.21,0.0,0.072,0.074,1,1,11,0,22
cropped_image_Sub01_Trial01_Sweep11_Label0_26.jpg,-0.1,-0.037,0.019,0.05,0.0,0.46,0.0,0.0,0.0,0.08,0.0,0.0,0.0,0.0,0.27,0.1,0.04,0.11,0.19,0.0,0.062,0.085,1,1,11,0,26
cropped_image_Sub01_Trial01_Sweep11_Label4_01.jpg,-0.096,-0.031,0.02,0.04,0.0,0.58,0.03,0.0,0.0,0.0,0.0,0.0,0.0,0.0,0.42,0.23,0.09,0.03,0.02,0.03,0.04,0.063,1,1,11,4,1
cropped_image_Sub01_Trial01_Sweep11_Label4_05.jpg,-0.097,-0.03,0.018,0.02,0.0,0.52,0.04,0.0,0.0,0.0,0.0,0.0,0.0,0.0,0.41,0.07,0.06,0.13,0.02,0.0,0.065,0.061,1,1,11,4,5
cropped_image_Sub01_Trial01_Sweep11_Label4_09.jpg,-0.095,-0.031,0.018,0.01,0.1,0.54,0.08,0.0,0.0,0.06,0.0,0.0,0.0,0.0,0.45,0.12,0.07,0.06,0.15,0.0,0.066,0.063,1,1,11,4,9
cropped_image_Sub01_Trial01_Sweep11_Label4_13.jpg,-0.096,-0.035,0.016,0.03,0.03,0.55,0.0,0.0,0.0,0.05,0.0,0.0,0.0,0.0,0.27,0.06,0.03,0.12,0.12,0.0,0.038,0.047,1,1,11,4,13
cropped_image_Sub01_Trial01_Sweep11_Label4_18.jpg,-0.085,-0.042,0.021,0.0,0.02,0.55,0.03,0.0,0.0,0.03,0.0,0.0,0.0,0.03,0.52,0.19,0.05,0.05,0.12,0.0,0.069,0.083,1,1,11,4,18
cropped_image_Sub01_Trial01_Sweep11_Label4_22.jpg,-0.094,-0.031,0.02,0.0,0.0,0.6,0.03,0.0,0.0,0.0,0.0,0.0,0.0,0.0,0.66,0.21,0.03,0.01,0.38,0.0,0.078,0.077,1,1,11,4,22
cropped_image_Sub01_Trial01_Sweep11_Label4_26.jpg,-0.088,-0.035,0.018,0.0,0.0,0.57,0.0,0.0,0.0,0.0,0.0,0.0,0.0,0.13,0.63,0.2,0.08,0.03,0.21,0.0,0.073,0.101,1,1,11,4,26
cropped_image_Sub01_Trial01_Sweep12_Label0_01.jpg,-0.075,-0.027,0.016,0.04,0.0,0.5,0.0,0.0,0.0,0.03,0.0,0.0,0.0,0.14,0.65,0.0,0.04,0.17,0.35,0.0,0.036,0.076,1,1,12,0,1
cropped_image_Sub01_Trial01_Sweep12_Label0_05.jpg,-0.073,-0.023,0.016,0.0,0.0,0.56,0.05,0.0,0.0,0.0,0.0,0.0,0.0,0.05,0.42,0.01,0.01,0.1,0.13,0.0,0.059,0.082,1,1,12,0,5
cropped_image_Sub01_Trial01_Sweep12_Label0_09.jpg,-0.077,-0.023,0.016,0.0,0.0,0.56,0.0,0.0,0.0,0.0,0.0,0.0,0.0,0.04,0.52,0.05,0.0,0.22,0.28,0.0,0.038,0.079,1,1,12,0,9
cropped_image_Sub01_Trial01_Sweep12_Label0_13.jpg,-0.074,-0.024,0.016,0.0,0.05,0.48,0.0,0.0,0.0,0.0,0.0,0.0,0.0,0.02,0.39,0.09,0.02,0.17,0.17,0.0,0.05,0.088,1,1,12,0,13
cropped_image_Sub01_Trial01_Sweep12_Label0_18.jpg,-0.075,-0.032,0.015,0.02,0.0,0.61,0.0,0.0,0.0,0.0,0.0,0.0,0.0,0.18,0.54,0.15,0.0,0.2,0.2,0.0,0.057,0.047,1,1,12,0,18
cropped_image_Sub01_Trial01_Sweep12_Label0_22.jpg,-0.082,-0.021,0.017,0.0,0.0,0.52,0.04,0.0,0.0,0.0,0.0,0.0,0.0,0.03,0.52,0.08,0.06,0.16,0.19,0.02,0.037,0.049,1,1,12,0,22
cropped_image_Sub01_Trial01_Sweep12_Label0_26.jpg,-0.076,-0.028,0.017,0.0,0.0,0.65,0.0,0.0,0.0,0.0,0.0,0.0,0.0,0.23,0.43,0.0,0.0,0.08,0.17,0.0,0.037,0.065,1,1,12,0,26
cropped_image_Sub01_Trial01_Sweep12_Label2_01.jpg,-0.072,-0.037,0.018,0.02,0.08,0.55,0.0,0.0,0.0,0.0,0.0,0.0,0.0,0.05,0.59,0.28,0.01,0.14,0.14,0.26,0.049,0.094,1,1,12,2,1
cropped_image_Sub01_Trial01_Sweep12_Label2_05.jpg,-0.07,-0.03,0.022,0.01,0.0,0.64,0.02,0.0,0.0,0.0,0.0,0.0,0.0,0.11,0.67,0.13,0.0,0.04,0.06,0.0,0.048,0.091,1,1,12,2,5
cropped_image_Sub01_Trial01_Sweep12_Label2_09.jpg,-0.061,-0.042,0.021,0.0,0.04,0.49,0.04,0.0,0.0,0.0,0.0,0.0,0.0,0.13,0.67,0.03,0.02,0.08,0.12,0.0,0.039,0.074,1,1,12,2,9
cropped_image_Sub01_Trial01_Sweep12_Label2_13.jpg,-0.076,-0.028,0.02,0.0,0.0,0.5,0.0,0.0,0.0,0.0,0.0,0.0,0.0,0.18,0.56,0.17,0.0,0.19,0.21,0.0,0.039,0.067,1,1,12,2,13
cropped_image_Sub01_Trial01_Sweep12_Label2_18.jpg,-0.061,-0.041,0.018,0.0,0.0,0.52,0.0,0.0,0.0,0.0,0.0,0.0,0.0,0.09,0.64,0.07,0.0,0.11,0.07,0.0,0.041,0.076,1,1,12,2,18
cropped_image_Sub01_Trial01_Sweep12_Label2_22.jpg,-0.063,-0.041,0.021,0.0,0.0,0.58,0.0,0.0,0.0,0.0,0.0,0.0,0.0,0.17,0.77,0.07,0.0,0.09,0.06,0.0,0.034,0.067,1,1,12,2,22
cropped_image_Sub01_Trial01_Sweep12_Label2_26.jpg,-0.059,-0.043,0.023,0.0,0.0,0.61,0.0,0.0,0.0,0.0,0.0,0.0,0.0,0.16,0.46,0.0,0.0,0.19,0.09,0.0,0.05,0.081,1,1,12,2,26
cropped_image_Sub01_Trial01_Sweep13_Label0_01.jpg,-0.063,-0.053,0.028,0.0,0.02,0.55,0.0,0.0,0.0,0.0,0.0,0.0,0.0,0.2,0.4,0.0,0.0,0.09,0.18,0.0,0.046,0.093,1,1,13,0,1
cropped_image_Sub01_Trial01_Sweep13_Label0_04.jpg,-0.071,-0.038,0.029,0.0,0.02,0.63,0.02,0.0,0.0,0.0,0.0,0.0,0.0,0.0,0.48,0.04,0.05,0.0,0.08,0.04,0.035,0.066,1,1,13,0,4
cropped_image_Sub01_Trial01_Sweep13_Label0_07.jpg,-0.071,-0.044,0.029,0.0,0.0,0.48,0.02,0.0,0.0,0.0,0.0,0.0,0.0,0.23,0.44,0.0,0.06,0.04,0.07,0.03,0.04,0.072,1,1,13,0,7
cropped_image_Sub01_Trial01_Sweep13_Label0_10.jpg,-0.075,-0.039,0.029,0.0,0.04,0.59,0.0,0.0,0.0,0.0,0.0,0.0,0.0,0.05,0.29,0.06,0.04,0.05,0.12,0.01,0.049,0.088,1,1,13,0,10
cropped_image_Sub01_Trial01_Sweep13_Label0_14.jpg,-0.084,-0.034,0.032,0.0,0.0,0.63,0.0,0.0,0.0,0.0,0.0,0.0,0.0,0.06,0.13,0.0,0.03,0.09,0.26,0.0,0.035,0.063,1,1,13,0,14
cropped_image_Sub01_Trial01_Sweep13_Label0_17.jpg,-0.085,-0.034,0.03,0.0,0.0,0.54,0.0,0.0,0.0,0.0,0.0,0.0,0.0,0.06,0.38,0.08,0.06,0.06,0.31,0.0,0.044,0.068,1,1,13,0,17
cropped_image_Sub01_Trial01_Sweep13_Label0_20.jpg,-0.08,-0.037,0.031,0.35,0.18,0.79,0.19,0.0,0.0,0.0,0.0,0.0,0.0,0.1,0.44,0.21,0.0,0.06,0.03,1.0,0.177,0.161,1,1,13,0,20
cropped_image_Sub01_Trial01_Sweep13_Label1_01.jpg,-0.077,-0.038,0.027,0.0,0.0,0.56,0.0,0.0,0.0,0.01,0.0,0.0,0.0,0.07,0.28,0.0,0.05,0.09,0.07,0.25,0.062,0.079,1,1,13,1,1
cropped_image_Sub01_Trial01_Sweep13_Label1_04.jpg,-0.063,-0.053,0.025,0.03,0.07,0.56,0.0,0.0,0.0,0.0,0.0,0.0,0.0,0.25,0.43,0.03,0.02,0.09,0.24,0.0,0.065,0.061,1,1,13,1,4
cropped_image_Sub01_Trial01_Sweep13_Label1_07.jpg,-0.069,-0.049,0.026,0.0,0.0,0.53,0.0,0.0,0.0,0.0,0.0,0.0,0.0,0.12,0.48,0.04,0.03,0.0,0.14,0.0,0.063,0.068,1,1,13,1,7
cropped_image_Sub01_Trial01_Sweep13_Label1_10.jpg,-0.076,-0.036,0.026,0.03,0.0,0.57,0.06,0.0,0.0,0.0,0.0,0.0,0.0,0.1,0.42,0.03,0.0,0.12,0.22,0.0,0.069,0.061,1,1,13,1,10
cropped_image_Sub01_Trial01_Sweep13_Label1_14.jpg,-0.062,-0.061,0.022,0.05,0.04,0.55,0.03,0.0,0.0,0.0,0.0,0.0,0.0,0.26,0.56,0.03,0.0,0.16,0.06,0.0,0.051,0.052,1,1,13,1,14
cropped_image_Sub01_Trial01_Sweep13_Label1_17.jpg,-0.065,-0.047,0.026,0.0,0.0,0.53,0.0,0.0,0.0,0.0,0.0,0.0,0.0,0.15,0.4,0.06,0.0,0.14,0.09,0.01,0.068,0.084,1,1,13,1,17
cropped_image_Sub01_Trial01_Sweep13_Label1_20.jpg,-0.07,-0.041,0.023,0.0,0.0,0.51,0.0,0.0,0.0,0.0,0.0,0.0,0.0,0.17,0.3,0.01,0.04,0.17,0.25,0.0,0.062,0.083,1,1,13,1,20
cropped_image_Sub01_Trial01_Sweep14_Label0_01.jpg,-0.068,-0.06,0.028,0.04,0.0,0.54,0.02,0.0,0.0,0.0,0.0,0.0,0.0,0.08,0.33,0.0,0.07,0.23,0.12,0.02,0.05,0.095,1,1,14,0,1
cropped_image_Sub01_Trial01_Sweep14_Label0_05.jpg,-0.056,-0.069,0.033,0.06,0.0,0.55,0.0,0.0,0.0,0.0,0.0,0.0,0.0,0.12,0.4,0.01,0.03,0.25,0.02,0.06,0.038,0.1,1,1,14,0,5
cropped_image_Sub01_Trial01_Sweep14_Label0_08.jpg,-0.055,-0.072,0.031,0.02,0.0,0.51,0.01,0.0,0.0,0.0,0.0,0.0,0.0,0.05,0.56,0.0,0.0,0.18,0.11,0.07,0.061,0.092,1,1,14,0,8
cropped_image_Sub01_Trial01_Sweep14_Label0_12.jpg,-0.061,-0.062,0.037,0.04,0.02,0.53,0.0,0.0,0.0,0.0,0.0,0.0,0.0,0.05,0.46,0.07,0.0,0.11,0.02,0.13,0.036,0.094,1,1,14,0,12
cropped_image_Sub01_Trial01_Sweep14_Label0_16.jpg,-0.054,-0.067,0.034,0.03,0.0,0.51,0.0,0.0,0.0,0.0,0.0,0.0,0.0,0.11,0.48,0.0,0.06,0.27,0.11,0.0,0.076,0.1,1,1,14,0,16
cropped_image_Sub01_Trial01_Sweep14_Label0_20.jpg,-0.05,-0.066,0.033,0.04,0.05,0.56,0.03,0.0,0.0,0.0,0.0,0.0,0.0,0.07,0.45,0.0,0.07,0.13,0.08,0.06,0.059,0.105,1,1,14,0,20
cropped_image_Sub01_Trial01_Sweep14_Label0_23.jpg,-0.053,-0.065,0.032,0.0,0.0,0.5,0.0,0.0,0.0,0.0,0.0,0.0,0.0,0.15,0.51,0.0,0.01,0.26,0.16,0.0,0.056,0.088,1,1,14,0,23
cropped_image_Sub01_Trial01_Sweep14_Label1_01.jpg,-0.075,-0.067,0.028,0.08,0.0,0.45,0.0,0.0,0.0,0.0,0.0,0.0,0.0,0.12,0.49,0.01,0.02,0.12,0.04,0.02,0.047,0.098,1,1,14,1,1
cropped_image_Sub01_Trial01_Sweep14_Label1_05.jpg,-0.08,-0.053,0.028,0.02,0.0,0.46,0.0,0.0,0.0,0.0,0.0,0.0,0.0,0.16,0.35,0.0,0.05,0.12,0.13,0.0,0.072,0.1,1,1,14,1,5
cropped_image_Sub01_Trial01_Sweep14_Label1_08.jpg,-0.074,-0.059,0.033,0.0,0.0,0.44,0.0,0.0,0.0,0.0,0.0,0.0,0.0,0.09,0.41,0.0,0.03,0.22,0.13,0.01,0.044,0.079,1,1,14,1,8
cropped_image_Sub01_Trial01_Sweep14_Label1_12.jpg,-0.06,-0.055,0.044,0.11,0.02,0.6,0.13,0.0,0.0,0.0,0.0,0.0,0.0,0.02,0.4,0.0,0.06,0.16,0.25,0.02,0.06,0.092,1,1,14,1,12
cropped_image_Sub01_Trial01_Sweep14_Label1_16.jpg,-0.063,-0.05,0.045,0.0,0.0,0.45,0.15,0.0,0.0,0.0,0.0,0.0,0.0,0.04,0.53,0.1,0.09,0.12,0.34,0.2,0.049,0.088,1,1,14,1,16
cropped_image_Sub01_Trial01_Sweep14_Label1_20.jpg,-0.062,-0.053,0.048,0.0,0.05,0.49,0.01,0.0,0.0,0.0,0.0,0.0,0.0,0.05,0.41,0.03,0.04,0.15,0.22,0.11,0.045,0.085,1,1,14,1,20
cropped_image_Sub01_Trial01_Sweep14_Label1_23.jpg,-0.068,-0.057,0.042,0.0,0.0,0.55,0.09,0.0,0.0,0.0,0.0,0.0,0.0,0.03,0.45,0.02,0.08,0.21,0.23,0.0,0.03,0.092,1,1,14,1,23
cropped_image_Sub01_Trial01_Sweep15_Label0_01.jpg,-0.044,-0.055,0.041,0.0,0.0,0.56,0.08,0.0,0.0,0.0,0.0,0.0,0.0,0.02,0.44,0.11,0.06,0.22,0.07,0.05,0.05,0.118,1,1,15,0,1
cropped_image_Sub01_Trial01_Sweep15_Label0_05.jpg,-0.051,-0.061,0.046,0.04,0.02,0.61,0.0,0.0,0.0,0.04,0.0,0.0,0.0,0.0,0.23,0.01,0.1,0.2,0.08,0.08,0.072,0.085,1,1,15,0,5
cropped_image_Sub01_Trial01_Sweep15_Label0_10.jpg,-0.05,-0.059,0.052,0.04,0.0,0.45,0.25,0.0,0.0,0.02,0.0,0.0,0.0,0.02,0.19,0.0,0.03,0.22,0.18,0.0,0.024,0.092,1,1,15,0,10
cropped_image_Sub01_Trial01_Sweep15_Label0_14.jpg,-0.062,-0.068,0.048,0.01,0.0,0.64,0.02,0.0,0.0,0.05,0.0,0.0,0.0,0.0,0.19,0.0,0.01,0.16,0.12,0.04,0.036,0.08,1,1,15,0,14
cropped_image_Sub01_Trial01_Sweep15_Label0_18.jpg,-0.056,-0.074,0.049,0.09,0.03,0.64,0.11,0.0,0.0,0.03,0.0,0.0,0.0,0.0,0.32,0.0,0.06,0.06,0.2,0.02,0.055,0.095,1,1,15,0,18
cropped_image_Sub01_Trial01_Sweep15_Label0_22.jpg,-0.055,-0.081,0.048,0.11,0.16,0.57,0.01,0.0,0.0,0.04,0.0,0.0,0.0,0.0,0.36,0.06,0.04,0.11,0.17,0.13,0.036,0.065,1,1,15,0,22
cropped_image_Sub01_Trial01_Sweep15_Label0_27.jpg,-0.054,-0.079,0.047,0.01,0.0,0.51,0.11,0.0,0.0,0.03,0.0,0.0,0.0,0.0,0.27,0.0,0.02,0.25,0.22,0.12,0.03,0.079,1,1,15,0,27
cropped_image_Sub01_Trial01_Sweep15_Label4_01.jpg,-0.047,-0.073,0.057,0.09,0.0,0.5,0.29,0.0,0.0,0.02,0.0,0.0,0.0,0.09,0.45,0.0,0.05,0.09,0.04,0.01,0.066,0.102,1,1,15,4,1
cropped_image_Sub01_Trial01_Sweep15_Label4_05.jpg,-0.058,-0.075,0.053,0.03,0.0,0.54,0.09,0.0,0.0,0.0,0.0,0.0,0.0,0.02,0.33,0.0,0.0,0.21,0.11,0.07,0.047,0.081,1,1,15,4,5
cropped_image_Sub01_Trial01_Sweep15_Label4_10.jpg,-0.069,-0.06,0.054,0.07,0.05,0.41,0.2,0.0,0.0,0.0,0.0,0.0,0.0,0.0,0.21,0.0,0.04,0.12,0.29,0.0,0.021,0.084,1,1,15,4,10
cropped_image_Sub01_Trial01_Sweep15_Label4_14.jpg,-0.061,-0.062,0.056,0.0,0.0,0.45,0.23,0.0,0.0,0.0,0.0,0.0,0.0,0.06,0.37,0.0,0.06,0.13,0.11,0.03,0.051,0.083,1,1,15,4,14
cropped_image_Sub01_Trial01_Sweep15_Label4_18.jpg,-0.055,-0.073,0.052,0.08,0.0,0.55,0.11,0.0,0.0,0.0,0.0,0.0,0.0,0.19,0.34,0.0,0.02,0.03,0.11,0.1,0.051,0.094,1,1,15,4,18
cropped_image_Sub01_Trial01_Sweep15_Label4_22.jpg,-0.056,-0.061,0.055,0.1,0.02,0.51,0.22,0.0,0.0,0.02,0.0,0.0,0.0,0.03,0.29,0.0,0.0,0.25,0.04,0.01,0.037,0.097,1,1,15,4,22
cropped_image_Sub01_Trial01_Sweep15_Label4_27.jpg,-0.049,-0.07,0.054,0.01,0.0,0.48,0.16,0.0,0.0,0.01,0.0,0.0,0.0,0.0,0.23,0.0,0.0,0.05,0.09,0.09,0.04,0.091,1,1,15,4,27
cropped_image_Sub01_Trial01_Sweep16_Label0_01.jpg,-0.082,-0.065,0.045,0.07,0.02,0.67,0.11,0.0,0.0,0.0,0.0,0.0,0.0,0.05,0.35,0.0,0.0,0.14,0.14,0.02,0.07,0.057,1,1,16,0,1
cropped_image_Sub01_Trial01_Sweep16_Label0_05.jpg,-0.08,-0.066,0.045,0.06,0.0,0.46,0.0,0.0,0.0,0.01,0.0,0.0,0.0,0.0,0.44,0.0,0.01,0.21,0.46,0.12,0.06,0.057,1,1,16,0,5
cropped_image_Sub01_Trial01_Sweep16_Label0_09.jpg,-0.068,-0.059,0.045,0.15,0.01,0.77,0.0,0.0,0.0,0.0,0.0,0.0,0.0,0.1,0.41,0.0,0.0,0.07,0.19,0.09,0.08,0.082,1,1,16,0,9
cropped_image_Sub01_Trial01_Sweep16_Label0_13.jpg,-0.063,-0.057,0.046,0.02,0.06,0.51,0.0,0.0,0.0,0.03,0.0,0.0,0.0,0.0,0.4,0.0,0.0,0.16,0.22,0.21,0.061,0.096,1,1,16,0,13
cropped_image_Sub01_Trial01_Sweep16_Label0_16.jpg,-0.069,-0.062,0.043,0.0,0.0,0.58,0.0,0.0,0.0,0.0,0.0,0.0,0.0,0.05,0.45,0.0,0.0,0.04,0.39,0.11,0.084,0.086,1,1,16,0,16
cropped_image_Sub01_Trial01_Sweep16_Label0_20.jpg,-0.067,-0.075,0.044,0.05,0.02,0.52,0.0,0.0,0.0,0.03,0.0,0.0,0.0,0.1,0.45,0.01,0.0,0.11,0.27,0.0,0.065,0.077,1,1,16,0,20
cropped_image_Sub01_Trial01_Sweep16_Label0_24.jpg,-0.079,-0.047,0.042,0.11,0.05,0.61,0.18,0.0,0.0,0.03,0.0,0.0,0.0,0.14,0.42,0.0,0.01,0.05,0.36,0.11,0.032,0.081,1,1,16,0,24
cropped_image_Sub01_Trial01_Sweep16_Label2_01.jpg,-0.065,-0.064,0.047,0.0,0.0,0.47,0.0,0.0,0.0,0.0,0.0,0.0,0.0,0.11,0.47,0.01,0.01,0.04,0.19,0.08,0.046,0.072,1,1,16,2,1
cropped_image_Sub01_Trial01_Sweep16_Label2_05.jpg,-0.062,-0.059,0.042,0.0,0.0,0.55,0.05,0.0,0.0,0.01,0.0,0.0,0.0,0.0,0.48,0.0,0.07,0.14,0.04,0.02,0.07,0.08,1,1,16,2,5
cropped_image_Sub01_Trial01_Sweep16_Label2_09.jpg,-0.069,-0.057,0.04,0.08,0.0,0.54,0.0,0.0,0.0,0.01,0.0,0.0,0.0,0.27,0.52,0.0,0.0,0.18,0.2,0.02,0.047,0.082,1,1,16,2,9
cropped_image_Sub01_Trial01_Sweep16_Label2_13.jpg,-0.072,-0.05,0.044,0.01,0.0,0.43,0.07,0.0,0.0,0.0,0.0,0.0,0.0,0.24,0.49,0.0,0.1,0.21,0.21,0.03,0.036,0.076,1,1,16,2,13
cropped_image_Sub01_Trial01_Sweep16_Label2_16.jpg,-0.069,-0.05,0.046,0.11,0.06,0.43,0.0,0.0,0.0,0.0,0.0,0.0,0.0,0.12,0.48,0.08,0.01,0.16,0.09,0.0,0.057,0.086,1,1,16,2,16
cropped_image_Sub01_Trial01_Sweep16_Label2_20.jpg,-0.071,-0.051,0.044,0.06,0.1,0.67,0.07,0.0,0.0,0.0,0.0,0.0,0.0,0.17,0.28,0.0,0.06,0.15,0.02,0.0,0.063,0.065,1,1,16,2,20
cropped_image_Sub01_Trial01_Sweep16_Label2_24.jpg,-0.062,-0.062,0.041,0.05,0.01,0.54,0.0,0.0,0.0,0.0,0.0,0.0,0.0,0.12,0.39,0.02,0.03,0.2,0.37,0.0,0.026,0.078,1,1,16,2,24
cropped_image_Sub01_Trial01_Sweep17_Label0_01.jpg,-0.066,-0.044,0.036,0.01,0.0,0.56,0.06,0.0,0.0,0.0,0.0,0.0,0.0,0.12,0.38,0.0,0.06,0.15,0.02,0.02,0.027,0.078,1,1,17,0,1
cropped_image_Sub01_Trial01_Sweep17_Label0_06.jpg,-0.056,-0.052,0.033,0.0,0.0,0.55,0.0,0.0,0.0,0.0,0.0,0.0,0.0,0.28,0.46,0.0,0.0,0.17,0.11,0.03,0.058,0.093,1,1,17,0,6
cropped_image_Sub01_Trial01_Sweep17_Label0_10.jpg,-0.063,-0.042,0.032,0.0,0.0,0.42,0.0,0.0,0.0,0.0,0.0,0.0,0.0,0.04,0.39,0.0,0.04,0.32,0.37,0.05,0.012,0.088,1,1,17,0,10
cropped_image_Sub01_Trial01_Sweep17_Label0_15.jpg,-0.05,-0.046,0.029,0.0,0.0,0.46,0.06,0.0,0.0,0.0,0.0,0.0,0.0,0.14,0.62,0.0,0.06,0.12,0.13,0.02,0.055,0.105,1,1,17,0,15
cropped_image_Sub01_Trial01_Sweep17_Label0_19.jpg,-0.049,-0.054,0.031,0.0,0.0,0.6,0.06,0.0,0.0,0.0,0.0,0.0,0.0,0.09,0.51,0.0,0.04,0.13,0.07,0.0,0.043,0.086,1,1,17,0,19
cropped_image_Sub01_Trial01_Sweep17_Label0_24.jpg,-0.048,-0.058,0.03,0.0,0.0,0.5,0.0,0.0,0.0,0.0,0.0,0.0,0.0,0.17,0.67,0.06,0.05,0.11,0.22,0.08,0.048,0.09,1,1,17,0,24
cropped_image_Sub01_Trial01_Sweep17_Label0_28.jpg,-0.047,-0.053,0.031,0.0,0.04,0.44,0.07,0.0,0.0,0.0,0.0,0.0,0.0,0.19,0.67,0.0,0.05,0.16,0.05,0.11,0.057,0.122,1,1,17,0,28
cropped_image_Sub01_Trial01_Sweep17_Label3_01.jpg,-0.046,-0.049,0.031,0.0,0.0,0.55,0.0,0.0,0.0,0.0,0.0,0.0,0.0,0.15,0.6,0.0,0.0,0.2,0.19,0.01,0.035,0.1,1,1,17,3,1
cropped_image_Sub01_Trial01_Sweep17_Label3_06.jpg,-0.047,-0.054,0.034,0.0,0.0,0.46,0.04,0.0,0.0,0.0,0.0,0.0,0.0,0.16,0.55,0.0,0.0,0.08,0.19,0.04,0.046,0.096,1,1,17,3,6
cropped_image_Sub01_Trial01_Sweep17_Label3_10.jpg,-0.046,-0.058,0.033,0.0,0.0,0.44,0.07,0.0,0.0,0.0,0.0,0.0,0.0,0.12,0.72,0.0,0.03,0.07,0.06,0.01,0.033,0.086,1,1,17,3,10
cropped_image_Sub01_Trial01_Sweep17_Label3_15.jpg,-0.041,-0.064,0.031,0.0,0.0,0.4,0.02,0.0,0.0,0.02,0.0,0.0,0.0,0.47,0.61,0.0,0.0,0.06,0.19,0.15,0.035,0.093,1,1,17,3,15
cropped_image_Sub01_Trial01_Sweep17_Label3_19.jpg,-0.044,-0.058,0.032,0.0,0.0,0.49,0.0,0.0,0.0,0.0,0.0,0.0,0.0,0.13,0.65,0.0,0.02,0.04,0.31,0.0,0.045,0.095,1,1,17,3,19
cropped_image_Sub01_Trial01_Sweep17_Label3_24.jpg,-0.044,-0.049,0.028,0.0,0.0,0.49,0.0,0.0,0.0,0.0,0.0,0.0,0.0,0.05,0.34,0.0,0.0,0.13,0.3,0.04,0.042,0.115,1,1,17,3,24
cropped_image_Sub01_Trial01_Sweep17_Label3_28.jpg,-0.053,-0.043,0.031,0.0,0.03,0.56,0.0,0.0,0.0,0.0,0.0,0.0,0.0,0.06,0.42,0.0,0.01,0.14,0.26,0.0,0.038,0.091,1,1,17,3,28
cropped_image_Sub01_Trial01_Sweep18_Label0_01.jpg,-0.054,-0.048,0.027,0.0,0.0,0.58,0.0,0.0,0.0,0.0,0.0,0.0,0.0,0.15,0.49,0.0,0.0,0.15,0.19,0.03,0.043,0.083,1,1,18,0,1
cropped_image_Sub01_Trial01_Sweep18_Label0_05.jpg,-0.059,-0.045,0.032,0.04,0.0,0.47,0.08,0.0,0.0,0.0,0.0,0.0,0.0,0.15,0.72,0.0,0.03,0.12,0.4,0.03,0.045,0.082,1,1,18,0,5
cropped_image_Sub01_Trial01_Sweep18_Label0_08.jpg,-0.055,-0.058,0.033,0.0,0.0,0.5,0.0,0.0,0.0,0.0,0.0,0.0,0.0,0.12,0.73,0.0,0.0,0.11,0.27,0.0,0.067,0.08,1,1,18,0,8
cropped_image_Sub01_Trial01_Sweep18_Label0_12.jpg,-0.056,-0.056,0.032,0.0,0.0,0.56,0.02,0.0,0.0,0.0,0.0,0.0,0.0,0.18,0.71,0.0,0.09,0.05,0.28,0.04,0.079,0.1,1,1,18,0,12
cropped_image_Sub01_Trial01_Sweep18_Label0_16.jpg,-0.064,-0.038,0.032,0.0,0.0,0.49,0.06,0.0,0.0,0.0,0.0,0.0,0.0,0.15,0.54,0.0,0.03,0.16,0.27,0.01,0.032,0.066,1,1,18,0,16
cropped_image_Sub01_Trial01_Sweep18_Label0_20.jpg,-0.062,-0.042,0.03,0.02,0.0,0.57,0.0,0.0,0.0,0.0,0.0,0.0,0.0,0.18,0.66,0.0,0.16,0.01,0.34,0.05,0.062,0.076,1,1,18,0,20
cropped_image_Sub01_Trial01_Sweep18_Label0_23.jpg,-0.058,-0.043,0.031,0.0,0.0,0.54,0.0,0.0,0.0,0.0,0.0,0.0,0.0,0.04,0.47,0.0,0.03,0.11,0.2,0.08,0.029,0.078,1,1,18,0,23
cropped_image_Sub01_Trial01_Sweep18_Label2_01.jpg,-0.066,-0.029,0.029,0.0,0.01,0.49,0.0,0.0,0.0,0.0,0.0,0.0,0.0,0.14,0.47,0.0,0.03,0.08,0.29,0.05,0.037,0.09,1,1,18,2,1
cropped_image_Sub01_Trial01_Sweep18_Label2_05.jpg,-0.061,-0.042,0.028,0.0,0.0,0.47,0.0,0.0,0.0,0.0,0.0,0.0,0.0,0.14,0.35,0.0,0.02,0.11,0.21,0.0,0.057,0.072,1,1,18,2,5
cropped_image_Sub01_Trial01_Sweep18_Label2_08.jpg,-0.055,-0.046,0.026,0.0,0.05,0.61,0.0,0.0,0.0,0.0,0.0,0.0,0.0,0.06,0.39,0.0,0.04,0.12,0.2,0.02,0.062,0.087,1,1,18,2,8
cropped_image_Sub01_Trial01_Sweep18_Label2_12.jpg,-0.053,-0.043,0.027,0.0,0.0,0.45,0.0,0.0,0.0,0.0,0.0,0.0,0.0,0.1,0.48,0.0,0.01,0.08,0.34,0.0,0.013,0.094,1,1,18,2,12
cropped_image_Sub01_Trial01_Sweep18_Label2_16.jpg,-0.061,-0.042,0.027,0.0,0.06,0.46,0.02,0.0,0.0,0.0,0.0,0.0,0.0,0.1,0.42,0.0,0.09,0.11,0.18,0.0,0.045,0.086,1,1,18,2,16
cropped_image_Sub01_Trial01_Sweep18_Label2_20.jpg,-0.05,-0.048,0.029,0.01,0.0,0.48,0.0,0.0,0.0,0.0,0.0,0.0,0.0,0.26,0.39,0.0,0.04,0.09,0.21,0.01,0.064,0.099,1,1,18,2,20
cropped_image_Sub01_Trial01_Sweep18_Label2_23.jpg,-0.053,-0.05,0.027,0.0,0.0,0.52,0.0,0.0,0.0,0.0,0.0,0.0,0.0,0.18,0.54,0.01,0.02,0.26,0.35,0.17,0.055,0.099,1,1,18,2,23
cropped_image_Sub01_Trial01_Sweep19_Label0_01.jpg,-0.061,-0.041,0.028,0.02,0.0,0.41,0.0,0.0,0.0,0.0,0.0,0.0,0.0,0.02,0.53,0.03,0.06,0.04,0.19,0.02,0.09,0.104,1,1,19,0,1
cropped_image_Sub01_Trial01_Sweep19_Label0_05.jpg,-0.054,-0.05,0.029,0.0,0.0,0.46,0.0,0.0,0.0,0.0,0.0,0.0,0.0,0.07,0.46,0.06,0.02,0.06,0.05,0.06,0.068,0.123,1,1,19,0,5
cropped_image_Sub01_Trial01_Sweep19_Label0_09.jpg,-0.053,-0.05,0.025,0.0,0.0,0.57,0.0,0.0,0.0,0.0,0.0,0.0,0.0,0.16,0.53,0.0,0.0,0.12,0.12,0.06,0.044,0.093,1,1,19,0,9
cropped_image_Sub01_Trial01_Sweep19_Label0_13.jpg,-0.068,-0.034,0.031,0.0,0.01,0.56,0.0,0.0,0.0,0.0,0.0,0.0,0.0,0.08,0.55,0.01,0.03,0.16,0.14,0.1,0.058,0.11,1,1,19,0,13
cropped_image_Sub01_Trial01_Sweep19_Label0_17.jpg,-0.053,-0.046,0.031,0.0,0.0,0.47,0.0,0.0,0.0,0.0,0.0,0.0,0.0,0.04,0.55,0.08,0.0,0.09,0.25,0.05,0.062,0.089,1,1,19,0,17
cropped_image_Sub01_Trial01_Sweep19_Label0_21.jpg,-0.052,-0.045,0.028,0.0,0.0,0.56,0.05,0.0,0.0,0.0,0.0,0.0,0.0,0.06,0.38,0.01,0.0,0.1,0.25,0.04,0.077,0.109,1,1,19,0,21
cropped_image_Sub01_Trial01_Sweep19_Label0_25.jpg,-0.059,-0.036,0.029,0.0,0.0,0.59,0.0,0.0,0.0,0.0,0.0,0.0,0.0,0.17,0.61,0.0,0.03,0.09,0.15,0.0,0.029,0.086,1,1,19,0,25
cropped_image_Sub01_Trial01_Sweep19_Label1_01.jpg,-0.055,-0.038,0.028,0.0,0.0,0.63,0.0,0.0,0.0,0.0,0.0,0.0,0.0,0.13,0.53,0.0,0.0,0.1,0.29,0.03,0.049,0.101,1,1,19,1,1
cropped_image_Sub01_Trial01_Sweep19_Label1_05.jpg,-0.051,-0.048,0.029,0.0,0.0,0.44,0.0,0.0,0.0,0.0,0.0,0.0,0.0,0.07,0.58,0.0,0.04,0.04,0.3,0.04,0.054,0.084,1,1,19,1,5
cropped_image_Sub01_Trial01_Sweep19_Label1_09.jpg,-0.058,-0.033,0.029,0.0,0.0,0.47,0.0,0.0,0.0,0.0,0.0,0.0,0.0,0.17,0.72,0.0,0.14,0.11,0.3,0.06,0.046,0.09,1,1,19,1,9
cropped_image_Sub01_Trial01_Sweep19_Label1_13.jpg,-0.064,-0.028,0.031,0.0,0.0,0.49,0.08,0.0,0.0,0.0,0.0,0.0,0.0,0.04,0.62,0.0,0.19,0.03,0.35,0.0,0.021,0.085,1,1,19,1,13
cropped_image_Sub01_Trial01_Sweep19_Label1_17.jpg,-0.059,-0.036,0.028,0.0,0.0,0.54,0.04,0.0,0.0,0.0,0.0,0.0,0.0,0.02,0.56,0.05,0.05,0.1,0.41,0.09,0.028,0.086,1,1,19,1,17
cropped_image_Sub01_Trial01_Sweep19_Label1_21.jpg,-0.056,-0.043,0.025,0.0,0.0,0.5,0.05,0.0,0.0,0.0,0.0,0.0,0.0,0.17,0.53,0.0,0.06,0.18,0.16,0.07,0.071,0.081,1,1,19,1,21
cropped_image_Sub01_Trial01_Sweep19_Label1_25.jpg,-0.059,-0.039,0.029,0.02,0.0,0.55,0.0,0.0,0.0,0.0,0.0,0.0,0.0,0.1,0.54,0.03,0.02,0.16,0.4,0.0,0.045,0.097,1,1,19,1,25
cropped_image_Sub01_Trial01_Sweep20_Label0_01.jpg,-0.052,-0.06,0.017,0.17,0.13,0.67,0.07,0.0,0.0,0.0,0.0,0.0,0.0,0.05,0.44,0.04,0.0,0.07,0.21,0.04,0.053,0.103,1,1,20,0,1
cropped_image_Sub01_Trial01_Sweep20_Label0_04.jpg,-0.055,-0.056,0.021,0.0,0.0,0.48,0.0,0.0,0.0,0.0,0.0,0.0,0.0,0.26,0.57,0.0,0.01,0.01,0.13,0.0,0.037,0.09,1,1,20,0,4
cropped_image_Sub01_Trial01_Sweep20_Label0_08.jpg,-0.058,-0.066,0.022,0.0,0.0,0.58,0.0,0.0,0.0,0.0,0.0,0.0,0.0,0.16,0.44,0.0,0.0,0.13,0.14,0.0,0.082,0.105,1,1,20,0,8
cropped_image_Sub01_Trial01_Sweep20_Label0_11.jpg,-0.05,-0.06,0.022,0.0,0.0,0.5,0.0,0.0,0.0,0.0,0.0,0.0,0.0,0.06,0.5,0.01,0.0,0.24,0.19,0.03,0.053,0.098,1,1,20,0,11
cropped_image_Sub01_Trial01_Sweep20_Label0_15.jpg,-0.047,-0.058,0.02,0.0,0.0,0.5,0.0,0.0,0.0,0.0,0.0,0.0,0.0,0.12,0.45,0.0,0.0,0.12,0.2,0.02,0.072,0.117,1,1,20,0,15
cropped_image_Sub01_Trial01_Sweep20_Label0_18.jpg,-0.055,-0.055,0.021,0.0,0.0,0.53,0.0,0.0,0.0,0.0,0.0,0.0,0.0,0.21,0.52,0.0,0.0,0.07,0.19,0.01,0.022,0.101,1,1,20,0,18
cropped_image_Sub01_Trial01_Sweep20_Label0_22.jpg,-0.05,-0.057,0.025,0.0,0.0,0.56,0.0,0.0,0.0,0.0,0.0,0.0,0.0,0.2,0.58,0.0,0.0,0.08,0.2,0.0,0.028,0.087,1,1,20,0,22
cropped_image_Sub01_Trial01_Sweep20_Label3_01.jpg,-0.063,-0.057,0.025,0.0,0.0,0.5,0.0,0.0,0.0,0.0,0.0,0.0,0.0,0.22,0.5,0.01,0.0,0.09,0.07,0.11,0.069,0.09,1,1,20,3,1
cropped_image_Sub01_Trial01_Sweep20_Label3_04.jpg,-0.066,-0.062,0.025,0.0,0.02,0.47,0.0,0.0,0.0,0.0,0.0,0.0,0.0,0.22,0.39,0.02,0.06,0.19,0.04,0.0,0.04,0.062,1,1,20,3,4
cropped_image_Sub01_Trial01_Sweep20_Label3_08.jpg,-0.069,-0.053,0.028,0.0,0.04,0.59,0.03,0.0,0.0,0.0,0.0,0.0,0.0,0.14,0.47,0.0,0.13,0.24,0.08,0.0,0.059,0.081,1,1,20,3,8
cropped_image_Sub01_Trial01_Sweep20_Label3_11.jpg,-0.065,-0.057,0.028,0.0,0.0,0.59,0.0,0.0,0.0,0.0,0.0,0.0,0.0,0.1,0.35,0.0,0.0,0.25,0.12,0.05,0.067,0.094,1,1,20,3,11
cropped_image_Sub01_Trial01_Sweep20_Label3_15.jpg,-0.069,-0.056,0.027,0.0,0.0,0.64,0.01,0.0,0.0,0.0,0.0,0.0,0.0,0.15,0.54,0.0,0.0,0.2,0.22,0.11,0.067,0.077,1,1,20,3,15
cropped_image_Sub01_Trial01_Sweep20_Label3_18.jpg,-0.058,-0.064,0.025,0.0,0.0,0.68,0.0,0.0,0.0,0.0,0.0,0.0,0.0,0.1,0.37,0.0,0.01,0.16,0.17,0.09,0.093,0.098,1,1,20,3,18
cropped_image_Sub01_Trial01_Sweep20_Label3_22.jpg,-0.066,-0.054,0.026,0.0,0.0,0.58,0.0,0.0,0.0,0.0,0.0,0.0,0.0,0.2,0.48,0.0,0.07,0.16,0.18,0.06,0.052,0.084,1,1,20,3,22
cropped_image_Sub01_Trial01_Sweep21_Label0_01.jpg,-0.06,-0.047,0.036,0.0,0.01,0.49,0.0,0.0,0.0,0.0,0.0,0.0,0.0,0.16,0.64,0.0,0.07,0.09,0.35,0.03,0.05,0.095,1,1,21,0,1
cropped_image_Sub01_Trial01_Sweep21_Label0_05.jpg,-0.061,-0.046,0.038,0.0,0.0,0.56,0.0,0.0,0.0,0.0,0.0,0.0,0.0,0.33,0.38,0.0,0.0,0.13,0.15,0.03,0.04,0.096,1,1,21,0,5
cropped_image_Sub01_Trial01_Sweep21_Label0_10.jpg,-0.052,-0.054,0.038,0.0,0.06,0.47,0.0,0.0,0.0,0.0,0.0,0.0,0.0,0.24,0.42,0.0,0.01,0.24,0.04,0.12,0.052,0.099,1,1,21,0,10
cropped_image_Sub01_Trial01_Sweep21_Label0_14.jpg,-0.057,-0.041,0.039,0.0,0.0,0.53,0.0,0.0,0.0,0.02,0.0,0.0,0.0,0.14,0.36,0.0,0.0,0.15,0.01,0.08,0.025,0.102,1,1,21,0,14
cropped_image_Sub01_Trial01_Sweep21_Label0_19.jpg,-0.052,-0.055,0.038,0.0,0.0,0.48,0.0,0.0,0.0,0.0,0.0,0.0,0.0,0.2,0.31,0.0,0.0,0.31,0.01,0.1,0.043,0.09,1,1,21,0,19
cropped_image_Sub01_Trial01_Sweep21_Label0_23.jpg,-0.057,-0.053,0.036,0.0,0.0,0.55,0.0,0.0,0.0,0.0,0.0,0.0,0.0,0.15,0.49,0.01,0.02,0.08,0.22,0.01,0.062,0.096,1,1,21,0,23
cropped_image_Sub01_Trial01_Sweep21_Label0_28.jpg,-0.05,-0.055,0.037,0.0,0.03,0.57,0.0,0.0,0.0,0.0,0.0,0.0,0.0,0.35,0.34,0.0,0.0,0.26,0.24,0.0,0.069,0.098,1,1,21,0,28
cropped_image_Sub01_Trial01_Sweep21_Label3_01.jpg,-0.056,-0.046,0.036,0.0,0.0,0.47,0.0,0.0,0.0,0.0,0.0,0.0,0.0,0.06,0.26,0.0,0.02,0.17,0.34,0.16,0.066,0.09,1,1,21,3,1
cropped_image_Sub01_Trial01_Sweep21_Label3_05.jpg,-0.052,-0.045,0.036,0.0,0.0,0.65,0.0,0.0,0.0,0.0,0.0,0.0,0.0,0.02,0.49,0.0,0.03,0.2,0.19,0.12,0.046,0.087,1,1,21,3,5
cropped_image_Sub01_Trial01_Sweep21_Label3_10.jpg,-0.065,-0.035,0.039,0.0,0.02,0.6,0.0,0.0,0.0,0.0,0.0,0.0,0.0,0.04,0.66,0.0,0.06,0.17,0.34,0.0,0.035,0.089,1,1,21,3,10
cropped_image_Sub01_Trial01_Sweep21_Label3_14.jpg,-0.061,-0.043,0.037,0.0,0.02,0.66,0.0,0.0,0.0,0.0,0.0,0.0,0.0,0.07,0.57,0.0,0.07,0.06,0.08,0.24,0.066,0.098,1,1,21,3,14
cropped_image_Sub01_Trial01_Sweep21_Label3_19.jpg,-0.058,-0.045,0.036,0.0,0.0,0.64,0.07,0.0,0.0,0.0,0.0,0.0,0.0,0.2,0.5,0.0,0.0,0.24,0.32,0.13,0.055,0.097,1,1,21,3,19
cropped_image_Sub01_Trial01_Sweep21_Label3_23.jpg,-0.066,-0.042,0.034,0.0,0.0,0.66,0.07,0.0,0.0,0.0,0.0,0.0,0.0,0.0,0.55,0.0,0.04,0.16,0.34,0.01,0.053,0.095,1,1,21,3,23
cropped_image_Sub01_Trial01_Sweep21_Label3_28.jpg,-0.063,-0.042,0.037,0.01,0.0,0.75,0.0,0.0,0.0,0.0,0.0,0.0,0.0,0.05,0.49,0.0,0.01,0.11,0.53,0.0,0.025,0.102,1,1,21,3,28
cropped_image_Sub01_Trial01_Sweep22_Label0_01.jpg,-0.062,-0.049,0.047,0.0,0.0,0.6,0.0,0.0,0.0,0.0,0.0,0.0,0.0,0.1,0.33,0.0,0.07,0.15,0.26,0.04,0.029,0.084,1,1,22,0,1
cropped_image_Sub01_Trial01_Sweep22_Label0_05.jpg,-0.065,-0.053,0.048,0.0,0.0,0.6,0.08,0.0,0.0,0.0,0.0,0.0,0.0,0.0,0.31,0.0,0.16,0.3,0.15,0.19,0.01,0.118,1,1,22,0,5
cropped_image_Sub01_Trial01_Sweep22_Label0_08.jpg,-0.065,-0.052,0.046,0.02,0.03,0.54,0.06,0.0,0.0,0.0,0.0,0.0,0.0,0.01,0.13,0.0,0.08,0.39,0.31,0.02,0.017,0.084,1,1,22,0,8
cropped_image_Sub01_Trial01_Sweep22_Label0_12.jpg,-0.058,-0.048,0.048,0.0,0.0,0.55,0.14,0.0,0.0,0.0,0.0,0.0,0.0,0.02,0.2,0.0,0.03,0.27,0.19,0.0,0.009,0.073,1,1,22,0,12
cropped_image_Sub01_Trial01_Sweep22_Label0_15.jpg,-0.054,-0.05,0.047,0.0,0.0,0.54,0.0,0.0,0.0,0.0,0.0,0.0,0.0,0.0,0.22,0.0,0.07,0.28,0.32,0.06,0.032,0.087,1,1,22,0,15
cropped_image_Sub01_Trial01_Sweep22_Label0_19.jpg,-0.056,-0.047,0.045,0.0,0.05,0.58,0.18,0.0,0.0,0.0,0.0,0.0,0.0,0.02,0.24,0.0,0.1,0.19,0.22,0.05,0.037,0.074,1,1,22,0,19
cropped_image_Sub01_Trial01_Sweep22_Label0_22.jpg,-0.066,-0.041,0.05,0.0,0.0,0.56,0.1,0.0,0.0,0.0,0.0,0.0,0.0,0.0,0.15,0.0,0.09,0.3,0.34,0.01,-0.001,0.061,1,1,22,0,22
cropped_image_Sub01_Trial01_Sweep22_Label4_01.jpg,-0.053,-0.056,0.048,0.0,0.0,0.45,0.05,0.0,0.0,0.0,0.0,0.0,0.0,0.0,0.31,0.0,0.09,0.32,0.26,0.0,0.048,0.086,1,1,22,4,1
cropped_image_Sub01_Trial01_Sweep22_Label4_05.jpg,-0.058,-0.052,0.048,0.16,0.13,0.76,0.33,0.0,0.0,0.04,0.0,0.0,0.0,0.03,0.29,0.0,0.02,0.15,0.42,1.11,0.17,0.138,1,1,22,4,5
cropped_image_Sub01_Trial01_Sweep22_Label4_08.jpg,-0.059,-0.051,0.043,0.09,0.02,0.76,0.06,0.0,0.0,0.1,0.0,0.0,0.0,0.04,0.39,0.07,0.0,0.34,0.45,0.31,0.054,0.171,1,1,22,4,8
cropped_image_Sub01_Trial01_Sweep22_Label4_12.jpg,-0.06,-0.048,0.045,0.01,0.0,0.64,0.08,0.0,0.0,0.0,0.0,0.0,0.0,0.01,0.45,0.0,0.0,0.18,0.32,0.06,0.023,0.117,1,1,22,4,12
cropped_image_Sub01_Trial01_Sweep22_Label4_15.jpg,-0.054,-0.044,0.044,0.03,0.04,0.59,0.02,0.0,0.0,0.0,0.0,0.0,0.0,0.0,0.39,0.0,0.03,0.26,0.4,0.08,0.027,0.11,1,1,22,4,15
cropped_image_Sub01_Trial01_Sweep22_Label4_19.jpg,-0.05,-0.061,0.047,0.03,0.0,0.63,0.06,0.0,0.0,0.01,0.0,0.0,0.0,0.07,0.28,0.0,0.0,0.11,0.28,0.2,0.069,0.105,1,1,22,4,19
cropped_image_Sub01_Trial01_Sweep22_Label4_22.jpg,-0.052,-0.052,0.048,0.03,0.1,0.5,0.01,0.0,0.0,0.03,0.0,0.0,0.0,0.03,0.25,0.0,0.0,0.13,0.1,0.07,0.041,0.103,1,1,22,4,22
cropped_image_Sub01_Trial01_Sweep23_Label0_01.jpg,-0.099,-0.057,0.042,0.2,0.0,0.5,0.03,0.0,0.0,0.03,0.0,0.0,0.0,0.12,0.41,0.01,0.01,0.06,0.12,0.07,0.052,0.071,1,1,23,0,1
cropped_image_Sub01_Trial01_Sweep23_Label0_04.jpg,-0.082,-0.077,0.04,0.28,0.11,0.67,0.0,0.0,0.0,0.05,0.0,0.0,0.0,0.05,0.42,0.0,0.0,0.12,0.09,0.0,0.061,0.068,1,1,23,0,4
cropped_image_Sub01_Trial01_Sweep23_Label0_08.jpg,-0.083,-0.069,0.042,0.09,0.03,0.48,0.0,0.0,0.0,0.04,0.0,0.0,0.0,0.1,0.23,0.0,0.0,0.15,0.0,0.0,0.081,0.067,1,1,23,0,8
cropped_image_Sub01_Trial01_Sweep23_Label0_11.jpg,-0.088,-0.066,0.039,0.18,0.0,0.51,0.0,0.0,0.0,0.0,0.0,0.0,0.0,0.12,0.44,0.05,0.01,0.18,0.1,0.03,0.07,0.07,1,1,23,0,11
cropped_image_Sub01_Trial01_Sweep23_Label0_15.jpg,-0.098,-0.059,0.038,0.16,0.0,0.62,0.01,0.0,0.0,0.02,0.0,0.0,0.0,0.01,0.11,0.0,0.0,0.19,0.0,0.0,0.061,0.044,1,1,23,0,15
cropped_image_Sub01_Trial01_Sweep23_Label0_18.jpg,-0.092,-0.059,0.038,0.1,0.0,0.58,0.0,0.0,0.0,0.04,0.0,0.0,0.0,0.0,0.13,0.0,0.0,0.05,0.01,0.01,0.069,0.076,1,1,23,0,18
cropped_image_Sub01_Trial01_Sweep23_Label0_22.jpg,-0.095,-0.053,0.043,0.0,0.0,0.46,0.0,0.0,0.0,0.05,0.0,0.0,0.0,0.05,0.2,0.0,0.03,0.18,0.2,0.04,0.058,0.086,1,1,23,0,22
cropped_image_Sub01_Trial01_Sweep23_Label2_01.jpg,-0.098,-0.054,0.036,0.06,0.0,0.59,0.0,0.0,0.0,0.05,0.0,0.0,0.0,0.09,0.24,0.0,0.0,0.08,0.0,0.0,0.066,0.071,1,1,23,2,1
cropped_image_Sub01_Trial01_Sweep23_Label2_04.jpg,-0.107,-0.04,0.037,0.0,0.0,0.49,0.0,0.0,0.0,0.04,0.0,0.0,0.0,0.09,0.27,0.01,0.0,0.05,0.05,0.03,0.036,0.054,1,1,23,2,4
cropped_image_Sub01_Trial01_Sweep23_Label2_08.jpg,-0.1,-0.05,0.034,0.13,0.0,0.47,0.0,0.0,0.0,0.02,0.0,0.0,0.0,0.07,0.29,0.05,0.0,0.14,0.2,0.04,0.086,0.073,1,1,23,2,8
cropped_image_Sub01_Trial01_Sweep23_Label2_11.jpg,-0.101,-0.049,0.038,0.06,0.05,0.48,0.0,0.0,0.0,0.0,0.0,0.0,0.0,0.05,0.13,0.0,0.0,0.18,0.06,0.0,0.068,0.051,1,1,23,2,11
cropped_image_Sub01_Trial01_Sweep23_Label2_15.jpg,-0.089,-0.063,0.036,0.11,0.02,0.41,0.0,0.0,0.0,0.0,0.0,0.0,0.0,0.05,0.23,0.0,0.02,0.08,0.06,0.0,0.074,0.072,1,1,23,2,15
cropped_image_Sub01_Trial01_Sweep23_Label2_18.jpg,-0.103,-0.038,0.039,0.08,0.0,0.49,0.0,0.0,0.0,0.01,0.0,0.0,0.0,0.12,0.35,0.03,0.06,0.11,0.17,0.01,0.049,0.058,1,1,23,2,18
cropped_image_Sub01_Trial01_Sweep23_Label2_22.jpg,-0.088,-0.05,0.038,0.12,0.08,0.5,0.0,0.0,0.0,0.04,0.0,0.0,0.0,0.12,0.43,0.0,0.04,0.19,0.15,0.1,0.059,0.062,1,1,23,2,22
cropped_image_Sub01_Trial01_Sweep24_Label0_01.jpg,-0.091,-0.054,0.03,0.03,0.0,0.6,0.0,0.0,0.0,0.03,0.0,0.0,0.0,0.04,0.29,0.03,0.01,0.04,0.03,0.1,0.059,0.07,1,1,24,0,1
cropped_image_Sub01_Trial01_Sweep24_Label0_06.jpg,-0.092,-0.055,0.029,0.03,0.02,0.54,0.0,0.0,0.0,0.0,0.0,0.0,0.0,0.16,0.45,0.04,0.0,0.08,0.1,0.06,0.064,0.074,1,1,24,0,6
cropped_image_Sub01_Trial01_Sweep24_Label0_10.jpg,-0.094,-0.048,0.031,0.07,0.0,0.54,0.0,0.0,0.0,0.0,0.0,0.0,0.0,0.06,0.38,0.11,0.0,0.08,0.2,0.02,0.063,0.065,1,1,24,0,10
cropped_image_Sub01_Trial01_Sweep24_Label0_15.jpg,-0.097,-0.051,0.029,0.06,0.06,0.5,0.0,0.0,0.0,0.01,0.0,0.0,0.0,0.05,0.46,0.04,0.04,0.11,0.27,0.0,0.07,0.068,1,1,24,0,15
cropped_image_Sub01_Trial01_Sweep24_Label0_20.jpg,-0.089,-0.064,0.027,0.05,0.04,0.53,0.0,0.0,0.0,0.0,0.0,0.0,0.0,0.04,0.39,0.0,0.0,0.03,0.23,0.0,0.071,0.052,1,1,24,0,20
cropped_image_Sub01_Trial01_Sweep24_Label0_25.jpg,-0.091,-0.055,0.03,0.03,0.05,0.5,0.0,0.0,0.0,0.01,0.0,0.0,0.0,0.0,0.38,0.0,0.0,0.19,0.34,0.13,0.054,0.068,1,1,24,0,25
cropped_image_Sub01_Trial01_Sweep24_Label0_29.jpg,-0.094,-0.055,0.031,0.05,0.11,0.66,0.0,0.0,0.0,0.0,0.0,0.0,0.0,0.04,0.38,0.0,0.0,0.04,0.06,0.0,0.069,0.067,1,1,24,0,29
cropped_image_Sub01_Trial01_Sweep24_Label1_01.jpg,-0.091,-0.046,0.029,0.0,0.06,0.55,0.0,0.0,0.0,0.0,0.0,0.0,0.0,0.03,0.42,0.08,0.01,0.11,0.1,0.01,0.072,0.06,1,1,24,1,1
cropped_image_Sub01_Trial01_Sweep24_Label1_06.jpg,-0.1,-0.04,0.03,0.05,0.0,0.49,0.0,0.0,0.0,0.02,0.0,0.0,0.0,0.11,0.32,0.0,0.0,0.06,0.02,0.0,0.048,0.067,1,1,24,1,6
cropped_image_Sub01_Trial01_Sweep24_Label1_10.jpg,-0.092,-0.057,0.025,0.0,0.0,0.56,0.0,0.0,0.0,0.03,0.0,0.0,0.0,0.19,0.1,0.0,0.0,0.0,0.16,0.04,0.046,0.064,1,1,24,1,10
cropped_image_Sub01_Trial01_Sweep24_Label1_15.jpg,-0.095,-0.049,0.032,0.0,0.0,0.63,0.0,0.0,0.0,0.0,0.0,0.0,0.0,0.0,0.43,0.06,0.0,0.03,0.02,0.05,0.078,0.042,1,1,24,1,15
cropped_image_Sub01_Trial01_Sweep24_Label1_20.jpg,-0.094,-0.045,0.029,0.0,0.02,0.53,0.0,0.0,0.0,0.0,0.0,0.0,0.0,0.03,0.41,0.0,0.0,0.09,0.22,0.05,0.048,0.058,1,1,24,1,20
cropped_image_Sub01_Trial01_Sweep24_Label1_25.jpg,-0.084,-0.059,0.028,0.04,0.0,0.61,0.0,0.0,0.0,0.0,0.0,0.0,0.0,0.09,0.38,0.0,0.02,0.03,0.13,0.1,0.052,0.067,1,1,24,1,25
cropped_image_Sub01_Trial01_Sweep24_Label1_29.jpg,-0.082,-0.062,0.028,0.08,0.0,0.59,0.0,0.0,0.0,0.0,0.0,0.0,0.0,0.0,0.33,0.01,0.0,0.08,0.11,0.0,0.09,0.077,1,1,24,1,29
cropped_image_Sub01_Trial01_Sweep25_Label0_01.jpg,-0.071,-0.035,0.023,0.0,0.0,0.63,0.0,0.0,0.0,0.0,0.0,0.0,0.0,0.04,0.48,0.0,0.0,0.1,0.32,0.0,0.038,0.079,1,1,25,0,1
cropped_image_Sub01_Trial01_Sweep25_Label0_06.jpg,-0.064,-0.044,0.02,0.0,0.05,0.7,0.0,0.0,0.0,0.01,0.0,0.0,0.0,0.14,0.47,0.0,0.0,0.13,0.3,0.0,0.035,0.075,1,1,25,0,6
cropped_image_Sub01_Trial01_Sweep25_Label0_10.jpg,-0.065,-0.042,0.018,0.0,0.0,0.6,0.0,0.0,0.0,0.0,0.0,0.0,0.0,0.12,0.57,0.0,0.01,0.19,0.26,0.07,0.05,0.101,1,1,25,0,10
cropped_image_Sub01_Trial01_Sweep25_Label0_15.jpg,-0.065,-0.045,0.018,0.0,0.0,0.71,0.0,0.0,0.0,0.0,0.0,0.0,0.0,0.0,0.49,0.0,0.0,0.19,0.52,0.05,0.052,0.096,1,1,25,0,15
cropped_image_Sub01_Trial01_Sweep25_Label0_19.jpg,-0.065,-0.046,0.022,0.0,0.0,0.66,0.0,0.0,0.0,0.02,0.0,0.0,0.0,0.11,0.47,0.0,0.0,0.17,0.26,0.17,0.043,0.077,1,1,25,0,19
cropped_image_Sub01_Trial01_Sweep25_Label0_24.jpg,-0.066,-0.041,0.02,0.0,0.0,0.52,0.0,0.0,0.0,0.0,0.0,0.0,0.0,0.21,0.48,0.0,0.0,0.13,0.2,0.02,0.041,0.092,1,1,25,0,24
cropped_image_Sub01_Trial01_Sweep25_Label0_28.jpg,-0.055,-0.047,0.02,0.0,0.0,0.54,0.0,0.0,0.0,0.0,0.0,0.0,0.0,0.18,0.45,0.0,0.0,0.18,0.12,0.0,0.048,0.1,1,1,25,0,28
cropped_image_Sub01_Trial01_Sweep25_Label1_01.jpg,-0.063,-0.044,0.026,0.0,0.03,0.44,0.05,0.0,0.0,0.0,0.0,0.0,0.0,0.03,0.5,0.08,0.0,0.2,0.16,0.02,0.042,0.068,1,1,25,1,1
cropped_image_Sub01_Trial01_Sweep25_Label1_06.jpg,-0.076,-0.037,0.024,0.0,0.0,0.49,0.06,0.0,0.0,0.0,0.0,0.0,0.0,0.07,0.44,0.02,0.01,0.1,0.32,0.01,0.046,0.083,1,1,25,1,6
cropped_image_Sub01_Trial01_Sweep25_Label1_10.jpg,-0.072,-0.041,0.023,0.0,0.0,0.55,0.0,0.0,0.0,0.0,0.0,0.0,0.0,0.11,0.51,0.04,0.0,0.14,0.32,0.04,0.049,0.074,1,1,25,1,10
cropped_image_Sub01_Trial01_Sweep25_Label1_15.jpg,-0.084,-0.031,0.027,0.0,0.0,0.63,0.03,0.0,0.0,0.02,0.0,0.0,0.0,0.13,0.39,0.0,0.06,0.05,0.29,0.0,0.035,0.065,1,1,25,1,15
cropped_image_Sub01_Trial01_Sweep25_Label1_19.jpg,-0.072,-0.041,0.024,0.06,0.0,0.6,0.0,0.0,0.0,0.0,0.0,0.0,0.0,0.12,0.41,0.06,0.08,0.03,0.37,0.04,0.036,0.1,1,1,25,1,19
cropped_image_Sub01_Trial01_Sweep25_Label1_24.jpg,-0.069,-0.042,0.024,0.0,0.03,0.51,0.01,0.0,0.0,0.0,0.0,0.0,0.0,0.05,0.3,0.03,0.01,0.32,0.36,0.01,0.046,0.059,1,1,25,1,24
cropped_image_Sub01_Trial01_Sweep25_Label1_28.jpg,-0.064,-0.048,0.026,0.0,0.0,0.46,0.0,0.0,0.0,0.0,0.0,0.0,0.0,0.0,0.51,0.0,0.03,0.22,0.21,0.03,0.06,0.08,1,1,25,1,28
cropped_image_Sub01_Trial01_Sweep26_Label0_01.jpg,-0.082,-0.054,0.024,0.0,0.05,0.46,0.0,0.0,0.0,0.04,0.0,0.0,0.0,0.0,0.33,0.0,0.0,0.1,0.12,0.07,0.07,0.072,1,1,26,0,1
cropped_image_Sub01_Trial01_Sweep26_Label0_06.jpg,-0.088,-0.05,0.031,0.05,0.0,0.53,0.0,0.0,0.0,0.0,0.0,0.0,0.0,0.22,0.43,0.0,0.0,0.1,0.2,0.0,0.076,0.066,1,1,26,0,6
cropped_image_Sub01_Trial01_Sweep26_Label0_11.jpg,-0.083,-0.048,0.03,0.07,0.07,0.56,0.04,0.0,0.0,0.01,0.0,0.0,0.0,0.11,0.43,0.0,0.0,0.01,0.23,0.04,0.051,0.067,1,1,26,0,11
cropped_image_Sub01_Trial01_Sweep26_Label0_16.jpg,-0.08,-0.047,0.032,0.0,0.0,0.51,0.0,0.0,0.0,0.03,0.0,0.0,0.0,0.02,0.4,0.02,0.0,0.07,0.1,0.0,0.075,0.088,1,1,26,0,16
cropped_image_Sub01_Trial01_Sweep26_Label0_20.jpg,-0.075,-0.052,0.034,0.0,0.0,0.46,0.0,0.0,0.0,0.0,0.0,0.0,0.0,0.21,0.52,0.02,0.0,0.07,0.06,0.09,0.081,0.084,1,1,26,0,20
cropped_image_Sub01_Trial01_Sweep26_Label0_25.jpg,-0.078,-0.057,0.033,0.02,0.0,0.51,0.0,0.0,0.0,0.0,0.0,0.0,0.0,0.23,0.24,0.06,0.0,0.06,0.11,0.2,0.074,0.078,1,1,26,0,25
cropped_image_Sub01_Trial01_Sweep26_Label0_30.jpg,-0.068,-0.054,0.031,0.04,0.05,0.54,0.0,0.0,0.0,0.0,0.0,0.0,0.0,0.13,0.51,0.0,0.0,0.11,0.05,0.19,0.068,0.089,1,1,26,0,30
cropped_image_Sub01_Trial01_Sweep26_Label3_01.jpg,-0.028,-0.048,0.032,0.0,0.02,0.49,0.18,0.0,0.0,0.0,0.0,0.0,0.0,0.14,0.54,0.05,0.02,0.0,0.3,0.13,0.053,0.123,1,1,26,3,1
cropped_image_Sub01_Trial01_Sweep26_Label3_06.jpg,-0.023,-0.028,0.034,0.0,0.0,0.58,0.35,0.0,0.0,0.0,0.0,0.0,0.0,0.21,0.8,0.0,0.13,0.17,0.56,0.1,0.021,0.085,1,1,26,3,6
cropped_image_Sub01_Trial01_Sweep26_Label3_11.jpg,-0.024,-0.037,0.034,0.0,0.0,0.59,0.57,0.0,0.0,0.0,0.0,0.0,0.0,0.2,0.82,0.02,0.16,0.17,0.65,0.33,0.023,0.095,1,1,26,3,11
cropped_image_Sub01_Trial01_Sweep26_Label3_16.jpg,-0.005,-0.044,0.028,0.0,0.0,0.58,0.52,0.0,0.0,0.0,0.0,0.0,0.0,0.32,0.83,0.0,0.09,0.3,0.22,0.08,0.03,0.126,1,1,26,3,16
cropped_image_Sub01_Trial01_Sweep26_Label3_20.jpg,0.01,-0.04,0.029,0.0,0.0,0.49,0.4,0.0,0.0,0.0,0.0,0.0,0.0,0.27,0.68,0.0,0.07,0.17,0.14,0.03,0.027,0.133,1,1,26,3,20
cropped_image_Sub01_Trial01_Sweep26_Label3_25.jpg,0.016,-0.043,0.031,0.0,0.0,0.71,0.21,0.0,0.0,0.01,0.0,0.0,0.0,0.27,0.78,0.02,0.02,0.17,0.29,0.0,0.02,0.153,1,1,26,3,25
cropped_image_Sub01_Trial01_Sweep26_Label3_30.jpg,0.014,-0.042,0.028,0.0,0.0,0.55,0.21,0.0,0.0,0.0,0.0,0.0,0.0,0.45,0.7,0.0,0.0,0.31,0.13,0.06,0.042,0.153,1,1,26,3,30
cropped_image_Sub01_Trial01_Sweep27_Label0_01.jpg,-0.059,-0.054,0.027,0.0,0.0,0.55,0.1,0.0,0.0,0.0,0.0,0.0,0.0,0.07,0.52,0.0,0.0,0.12,0.06,0.16,0.075,0.086,1,1,27,0,1
cropped_image_Sub01_Trial01_Sweep27_Label0_05.jpg,-0.074,-0.044,0.033,0.0,0.0,0.59,0.01,0.0,0.0,0.0,0.0,0.0,0.0,0.06,0.32,0.02,0.0,0.07,0.2,0.07,0.041,0.091,1,1,27,0,5
cropped_image_Sub01_Trial01_Sweep27_Label0_09.jpg,-0.059,-0.055,0.032,0.0,0.0,0.62,0.01,0.0,0.0,0.0,0.0,0.0,0.0,0.16,0.34,0.03,0.0,0.03,0.07,0.06,0.055,0.087,1,1,27,0,9
cropped_image_Sub01_Trial01_Sweep27_Label0_13.jpg,-0.069,-0.047,0.029,0.0,0.0,0.66,0.01,0.0,0.0,0.0,0.0,0.0,0.0,0.06,0.45,0.1,0.0,0.08,0.27,0.08,0.043,0.074,1,1,27,0,13
cropped_image_Sub01_Trial01_Sweep27_Label0_16.jpg,-0.077,-0.037,0.029,0.0,0.0,0.53,0.0,0.0,0.0,0.0,0.0,0.0,0.0,0.1,0.54,0.03,0.0,0.05,0.28,0.11,0.042,0.076,1,1,27,0,16
cropped_image_Sub01_Trial01_Sweep27_Label0_20.jpg,-0.063,-0.037,0.03,0.0,0.0,0.52,0.0,0.0,0.0,0.0,0.0,0.0,0.0,0.03,0.3,0.0,0.0,0.11,0.26,0.06,0.062,0.091,1,1,27,0,20
cropped_image_Sub01_Trial01_Sweep27_Label0_24.jpg,-0.051,-0.048,0.03,0.0,0.0,0.57,0.03,0.0,0.0,0.01,0.0,0.0,0.0,0.09,0.14,0.0,0.0,0.01,0.09,0.03,0.065,0.098,1,1,27,0,24
cropped_image_Sub01_Trial01_Sweep27_Label4_01.jpg,-0.062,-0.043,0.027,0.0,0.0,0.5,0.14,0.0,0.0,0.0,0.0,0.0,0.0,0.0,0.34,0.0,0.01,0.09,0.25,0.14,0.05,0.094,1,1,27,4,1
cropped_image_Sub01_Trial01_Sweep27_Label4_05.jpg,-0.077,-0.025,0.031,0.0,0.03,0.52,0.0,0.0,0.0,0.0,0.0,0.0,0.0,0.0,0.09,0.0,0.0,0.11,0.17,0.04,0.048,0.093,1,1,27,4,5
cropped_image_Sub01_Trial01_Sweep27_Label4_09.jpg,-0.058,-0.05,0.028,0.0,0.02,0.6,0.0,0.0,0.0,0.0,0.0,0.0,0.0,0.0,0.16,0.0,0.0,0.32,0.16,0.11,0.065,0.097,1,1,27,4,9
cropped_image_Sub01_Trial01_Sweep27_Label4_13.jpg,-0.054,-0.049,0.027,0.0,0.0,0.65,0.11,0.0,0.0,0.0,0.0,0.0,0.0,0.01,0.29,0.03,0.0,0.22,0.16,0.08,0.031,0.082,1,1,27,4,13
cropped_image_Sub01_Trial01_Sweep27_Label4_16.jpg,-0.059,-0.049,0.031,0.0,0.0,0.68,0.0,0.0,0.0,0.0,0.0,0.0,0.0,0.0,0.05,0.0,0.0,0.18,0.13,0.06,0.045,0.086,1,1,27,4,16
cropped_image_Sub01_Trial01_Sweep27_Label4_20.jpg,-0.053,-0.052,0.031,0.0,0.0,0.57,0.0,0.0,0.0,0.0,0.0,0.0,0.0,0.0,0.28,0.0,0.0,0.23,0.12,0.11,0.044,0.097,1,1,27,4,20
cropped_image_Sub01_Trial01_Sweep27_Label4_24.jpg,-0.061,-0.046,0.031,0.0,0.0,0.6,0.0,0.0,0.0,0.0,0.0,0.0,0.0,0.02,0.18,0.0,0.0,0.11,0.22,0.02,0.043,0.088,1,1,27,4,24
cropped_image_Sub01_Trial01_Sweep28_Label0_01.jpg,-0.043,-0.057,0.034,0.0,0.0,0.59,0.0,0.0,0.0,0.0,0.0,0.0,0.0,0.04,0.43,0.0,0.0,0.11,0.15,0.17,0.045,0.093,1,1,28,0,1
cropped_image_Sub01_Trial01_Sweep28_Label0_05.jpg,-0.052,-0.051,0.031,0.06,0.0,0.64,0.13,0.0,0.0,0.0,0.0,0.0,0.0,0.19,0.66,0.0,0.03,0.07,0.45,0.04,0.045,0.084,1,1,28,0,5
cropped_image_Sub01_Trial01_Sweep28_Label0_10.jpg,-0.058,-0.051,0.03,0.01,0.0,0.46,0.09,0.0,0.0,0.0,0.0,0.0,0.0,0.05,0.5,0.0,0.0,0.08,0.23,0.17,0.016,0.082,1,1,28,0,10
cropped_image_Sub01_Trial01_Sweep28_Label0_14.jpg,-0.053,-0.048,0.028,0.04,0.15,0.59,0.14,0.0,0.0,0.0,0.0,0.0,0.0,0.17,0.5,0.0,0.02,0.07,0.24,0.04,0.052,0.107,1,1,28,0,14
cropped_image_Sub01_Trial01_Sweep28_Label0_18.jpg,-0.058,-0.053,0.028,0.01,0.0,0.57,0.18,0.0,0.0,0.0,0.0,0.0,0.0,0.06,0.69,0.0,0.01,0.13,0.37,0.15,0.047,0.095,1,1,28,0,18
cropped_image_Sub01_Trial01_Sweep28_Label0_22.jpg,-0.065,-0.051,0.027,0.14,0.0,0.56,0.24,0.0,0.0,0.0,0.0,0.0,0.0,0.18,0.42,0.0,0.0,0.15,0.37,0.04,0.048,0.09,1,1,28,0,22
cropped_image_Sub01_Trial01_Sweep28_Label0_27.jpg,-0.052,-0.06,0.03,0.05,0.0,0.62,0.18,0.0,0.0,0.0,0.0,0.0,0.0,0.3,0.61,0.0,0.0,0.29,0.09,0.0,0.059,0.087,1,1,28,0,27
cropped_image_Sub01_Trial01_Sweep28_Label2_01.jpg,-0.064,-0.035,0.027,0.0,0.0,0.55,0.01,0.0,0.0,0.0,0.0,0.0,0.0,0.24,0.28,0.0,0.04,0.09,0.19,0.23,0.033,0.075,1,1,28,2,1
cropped_image_Sub01_Trial01_Sweep28_Label2_05.jpg,-0.06,-0.042,0.024,0.0,0.0,0.51,0.02,0.0,0.0,0.0,0.0,0.0,0.0,0.12,0.52,0.0,0.01,0.02,0.52,0.08,0.05,0.086,1,1,28,2,5
cropped_image_Sub01_Trial01_Sweep28_Label2_10.jpg,-0.065,-0.033,0.025,0.0,0.12,0.56,0.02,0.0,0.0,0.0,0.0,0.0,0.0,0.17,0.61,0.0,0.07,0.05,0.34,0.07,0.025,0.076,1,1,28,2,10
cropped_image_Sub01_Trial01_Sweep28_Label2_14.jpg,-0.058,-0.047,0.022,0.02,0.02,0.65,0.08,0.0,0.0,0.0,0.0,0.0,0.0,0.2,0.52,0.03,0.03,0.11,0.3,0.16,0.041,0.075,1,1,28,2,14
cropped_image_Sub01_Trial01_Sweep28_Label2_18.jpg,-0.056,-0.047,0.025,0.0,0.04,0.56,0.01,0.0,0.0,0.0,0.0,0.0,0.0,0.11,0.48,0.0,0.0,0.26,0.31,0.02,0.046,0.086,1,1,28,2,18
cropped_image_Sub01_Trial01_Sweep28_Label2_22.jpg,-0.054,-0.046,0.027,0.0,0.0,0.63,0.15,0.0,0.0,0.0,0.0,0.0,0.0,0.18,0.62,0.0,0.0,0.07,0.13,0.03,0.063,0.08,1,1,28,2,22
cropped_image_Sub01_Trial01_Sweep28_Label2_27.jpg,-0.055,-0.044,0.026,0.0,0.0,0.55,0.02,0.0,0.0,0.0,0.0,0.0,0.0,0.15,0.55,0.0,0.0,0.14,0.07,0.0,0.036,0.084,1,1,28,2,27
cropped_image_Sub01_Trial01_Sweep29_Label0_01.jpg,-0.121,-0.03,0.033,0.0,0.0,0.5,0.0,0.0,0.0,0.04,0.0,0.0,0.0,0.09,0.28,0.04,0.01,0.12,0.18,0.02,0.042,0.061,1,1,29,0,1
cropped_image_Sub01_Trial01_Sweep29_Label0_05.jpg,-0.12,-0.034,0.032,0.08,0.0,0.53,0.0,0.0,0.0,0.09,0.0,0.0,0.0,0.01,0.11,0.06,0.0,0.22,0.19,0.01,0.051,0.044,1,1,29,0,5
cropped_image_Sub01_Trial01_Sweep29_Label0_10.jpg,-0.121,-0.038,0.034,0.04,0.0,0.49,0.09,0.0,0.0,0.08,0.0,0.0,0.0,0.0,0.12,0.11,0.0,0.08,0.04,0.0,0.071,0.039,1,1,29,0,10
cropped_image_Sub01_Trial01_Sweep29_Label0_14.jpg,-0.125,-0.021,0.037,0.04,0.0,0.49,0.0,0.0,0.0,0.0,0.0,0.0,0.0,0.02,0.36,0.06,0.03,0.06,0.12,0.04,0.05,0.064,1,1,29,0,14
cropped_image_Sub01_Trial01_Sweep29_Label0_19.jpg,-0.119,-0.031,0.033,0.01,0.0,0.55,0.0,0.0,0.0,0.13,0.0,0.0,0.0,0.0,0.13,0.14,0.0,0.03,0.07,0.03,0.049,0.048,1,1,29,0,19
cropped_image_Sub01_Trial01_Sweep29_Label0_23.jpg,-0.117,-0.03,0.033,0.0,0.0,0.34,0.0,0.0,0.0,0.0,0.0,0.0,0.0,0.1,0.17,0.07,0.01,0.0,0.11,0.0,0.052,0.066,1,1,29,0,23
cropped_image_Sub01_Trial01_Sweep29_Label0_28.jpg,-0.114,-0.038,0.035,0.01,0.03,0.54,0.0,0.0,0.0,0.03,0.0,0.0,0.0,0.0,0.17,0.04,0.0,0.04,0.02,0.01,0.042,0.034,1,1,29,0,28
cropped_image_Sub01_Trial01_Sweep29_Label3_01.jpg,-0.108,-0.035,0.033,0.0,0.0,0.56,0.0,0.0,0.0,0.0,0.0,0.0,0.0,0.07,0.25,0.03,0.0,0.0,0.04,0.0,0.054,0.059,1,1,29,3,1
cropped_image_Sub01_Trial01_Sweep29_Label3_05.jpg,-0.11,-0.03,0.034,0.01,0.03,0.48,0.03,0.0,0.0,0.02,0.0,0.0,0.0,0.18,0.26,0.07,0.0,0.0,0.1,0.0,0.06,0.036,1,1,29,3,5
cropped_image_Sub01_Trial01_Sweep29_Label3_10.jpg,-0.11,-0.037,0.034,0.0,0.03,0.45,0.0,0.0,0.0,0.0,0.0,0.0,0.0,0.0,0.2,0.25,0.0,0.22,0.14,0.02,0.041,0.042,1,1,29,3,10
cropped_image_Sub01_Trial01_Sweep29_Label3_14.jpg,-0.113,-0.032,0.034,0.0,0.0,0.53,0.0,0.0,0.0,0.01,0.0,0.0,0.0,0.05,0.22,0.0,0.02,0.19,0.1,0.0,0.049,0.068,1,1,29,3,14
cropped_image_Sub01_Trial01_Sweep29_Label3_19.jpg,-0.103,-0.04,0.034,0.03,0.06,0.56,0.0,0.0,0.0,0.01,0.0,0.0,0.0,0.15,0.42,0.04,0.03,0.18,0.0,0.0,0.045,0.041,1,1,29,3,19
cropped_image_Sub01_Trial01_Sweep29_Label3_23.jpg,-0.095,-0.046,0.034,0.02,0.0,0.55,0.0,0.0,0.0,0.0,0.0,0.0,0.0,0.18,0.43,0.11,0.0,0.1,0.0,0.0,0.08,0.05,1,1,29,3,23
cropped_image_Sub01_Trial01_Sweep29_Label3_28.jpg,-0.09,-0.052,0.034,0.08,0.0,0.6,0.0,0.0,0.0,0.0,0.0,0.0,0.0,0.04,0.42,0.0,0.0,0.14,0.0,0.0,0.083,0.07,1,1,29,3,28
cropped_image_Sub01_Trial01_Sweep30_Label0_01.jpg,-0.081,-0.071,0.034,0.06,0.03,0.48,0.07,0.0,0.0,0.0,0.0,0.0,0.0,0.2,0.31,0.0,0.0,0.14,0.04,0.0,0.072,0.063,1,1,30,0,1
cropped_image_Sub01_Trial01_Sweep30_Label0_04.jpg,-0.085,-0.06,0.038,0.02,0.0,0.39,0.02,0.0,0.0,0.0,0.0,0.0,0.0,0.07,0.45,0.0,0.04,0.13,0.02,0.04,0.084,0.069,1,1,30,0,4
cropped_image_Sub01_Trial01_Sweep30_Label0_08.jpg,-0.08,-0.065,0.038,0.05,0.09,0.4,0.0,0.0,0.0,0.0,0.0,0.0,0.0,0.14,0.2,0.1,0.0,0.04,0.09,0.0,0.074,0.062,1,1,30,0,8
cropped_image_Sub01_Trial01_Sweep30_Label0_11.jpg,-0.077,-0.067,0.037,0.05,0.0,0.47,0.0,0.0,0.0,0.0,0.0,0.0,0.0,0.1,0.31,0.03,0.0,0.17,0.0,0.07,0.082,0.06,1,1,30,0,11
cropped_image_Sub01_Trial01_Sweep30_Label0_15.jpg,-0.084,-0.054,0.036,0.0,0.0,0.5,0.0,0.0,0.0,0.0,0.0,0.0,0.0,0.04,0.31,0.01,0.0,0.13,0.08,0.0,0.085,0.081,1,1,30,0,15
cropped_image_Sub01_Trial01_Sweep30_Label0_18.jpg,-0.083,-0.054,0.037,0.0,0.0,0.44,0.01,0.0,0.0,0.0,0.0,0.0,0.0,0.0,0.14,0.06,0.0,0.05,0.02,0.0,0.083,0.087,1,1,30,0,18
cropped_image_Sub01_Trial01_Sweep30_Label0_22.jpg,-0.081,-0.062,0.038,0.02,0.07,0.54,0.0,0.0,0.0,0.0,0.0,0.0,0.0,0.09,0.24,0.0,0.0,0.16,0.06,0.03,0.056,0.074,1,1,30,0,22
cropped_image_Sub01_Trial01_Sweep30_Label4_01.jpg,-0.092,-0.06,0.037,0.03,0.01,0.5,0.0,0.0,0.0,0.0,0.0,0.0,0.0,0.12,0.31,0.0,0.0,0.2,0.04,0.05,0.076,0.037,1,1,30,4,1
cropped_image_Sub01_Trial01_Sweep30_Label4_04.jpg,-0.089,-0.061,0.039,0.04,0.0,0.52,0.0,0.0,0.0,0.0,0.0,0.0,0.0,0.08,0.55,0.05,0.02,0.0,0.06,0.09,0.077,0.045,1,1,30,4,4
cropped_image_Sub01_Trial01_Sweep30_Label4_08.jpg,-0.086,-0.063,0.039,0.09,0.0,0.51,0.01,0.0,0.0,0.0,0.0,0.0,0.0,0.08,0.31,0.02,0.0,0.14,0.04,0.0,0.067,0.053,1,1,30,4,8
cropped_image_Sub01_Trial01_Sweep30_Label4_11.jpg,-0.096,-0.052,0.037,0.0,0.0,0.44,0.0,0.0,0.0,0.0,0.0,0.0,0.0,0.05,0.37,0.0,0.0,0.15,0.02,0.0,0.078,0.062,1,1,30,4,11
cropped_image_Sub01_Trial01_Sweep30_Label4_15.jpg,-0.103,-0.045,0.042,0.04,0.01,0.47,0.0,0.0,0.0,0.0,0.0,0.0,0.0,0.06,0.31,0.01,0.01,0.06,0.1,0.0,0.072,0.049,1,1,30,4,15
cropped_image_Sub01_Trial01_Sweep30_Label4_18.jpg,-0.088,-0.064,0.04,0.08,0.0,0.57,0.0,0.0,0.0,0.0,0.0,0.0,0.0,0.07,0.31,0.01,0.04,0.1,0.04,0.0,0.068,0.067,1,1,30,4,18
cropped_image_Sub01_Trial01_Sweep30_Label4_22.jpg,-0.089,-0.061,0.041,0.08,0.0,0.46,0.0,0.0,0.0,0.01,0.0,0.0,0.0,0.14,0.38,0.04,0.0,0.08,0.17,0.02,0.057,0.052,1,1,30,4,22
cropped_image_Sub01_Trial01_Sweep31_Label0_01.jpg,-0.112,-0.045,0.035,0.0,0.0,0.58,0.0,0.0,0.0,0.0,0.0,0.0,0.0,0.02,0.28,0.08,0.01,0.11,0.28,0.0,0.055,0.056,1,1,31,0,1
cropped_image_Sub01_Trial01_Sweep31_Label0_05.jpg,-0.11,-0.049,0.031,0.08,0.04,0.61,0.0,0.0,0.0,0.06,0.0,0.0,0.0,0.04,0.25,0.02,0.05,0.05,0.24,0.0,0.066,0.074,1,1,31,0,5
cropped_image_Sub01_Trial01_Sweep31_Label0_08.jpg,-0.113,-0.046,0.03,0.04,0.0,0.46,0.0,0.0,0.0,0.0,0.0,0.0,0.0,0.04,0.23,0.01,0.01,0.09,0.2,0.0,0.047,0.071,1,1,31,0,8
cropped_image_Sub01_Trial01_Sweep31_Label0_12.jpg,-0.109,-0.051,0.03,0.0,0.0,0.5,0.0,0.0,0.0,0.0,0.0,0.0,0.0,0.0,0.18,0.09,0.01,0.17,0.23,0.07,0.071,0.066,1,1,31,0,12
cropped_image_Sub01_Trial01_Sweep31_Label0_16.jpg,-0.113,-0.046,0.034,0.07,0.0,0.42,0.0,0.0,0.0,0.03,0.0,0.0,0.0,0.0,0.19,0.17,0.0,0.1,0.16,0.0,0.046,0.069,1,1,31,0,16
cropped_image_Sub01_Trial01_Sweep31_Label0_20.jpg,-0.104,-0.047,0.032,0.0,0.0,0.5,0.0,0.0,0.0,0.04,0.0,0.0,0.0,0.01,0.35,0.0,0.0,0.04,0.25,0.0,0.047,0.083,1,1,31,0,20
cropped_image_Sub01_Trial01_Sweep31_Label0_23.jpg,-0.106,-0.048,0.032,0.18,0.07,0.71,0.07,0.0,0.0,0.05,0.0,0.0,0.0,0.0,0.2,0.07,0.0,0.11,0.14,0.62,0.097,0.153,1,1,31,0,23
cropped_image_Sub01_Trial01_Sweep31_Label1_01.jpg,-0.112,-0.045,0.034,0.2,0.12,0.68,0.0,0.0,0.0,0.08,0.0,0.0,0.0,0.06,0.18,0.08,0.0,0.16,0.08,0.59,0.071,0.062,1,1,31,1,1
cropped_image_Sub01_Trial01_Sweep31_Label1_05.jpg,-0.112,-0.047,0.033,0.22,0.01,0.61,0.0,0.0,0.0,0.05,0.0,0.0,0.0,0.0,0.18,0.0,0.01,0.09,0.23,0.07,0.044,0.087,1,1,31,1,5
cropped_image_Sub01_Trial01_Sweep31_Label1_08.jpg,-0.118,-0.042,0.033,0.08,0.0,0.43,0.0,0.0,0.0,0.02,0.0,0.0,0.0,0.0,0.18,0.0,0.01,0.07,0.18,0.15,0.044,0.049,1,1,31,1,8
cropped_image_Sub01_Trial01_Sweep31_Label1_12.jpg,-0.118,-0.043,0.033,0.03,0.01,0.47,0.0,0.0,0.0,0.0,0.0,0.0,0.0,0.0,0.31,0.02,0.01,0.01,0.1,0.08,0.056,0.078,1,1,31,1,12
cropped_image_Sub01_Trial01_Sweep31_Label1_16.jpg,-0.107,-0.051,0.034,0.08,0.0,0.51,0.0,0.0,0.0,0.0,0.0,0.0,0.0,0.03,0.35,0.1,0.03,0.0,0.08,0.0,0.076,0.082,1,1,31,1,16
cropped_image_Sub01_Trial01_Sweep31_Label1_20.jpg,-0.105,-0.057,0.033,0.03,0.0,0.47,0.0,0.0,0.0,0.0,0.0,0.0,0.0,0.0,0.29,0.01,0.0,0.17,0.0,0.03,0.04,0.063,1,1,31,1,20
cropped_image_Sub01_Trial01_Sweep31_Label1_23.jpg,-0.092,-0.067,0.034,0.17,0.01,0.5,0.0,0.0,0.0,0.04,0.0,0.0,0.0,0.01,0.3,0.07,0.0,0.15,0.0,0.01,0.055,0.068,1,1,31,1,23
cropped_image_Sub01_Trial01_Sweep32_Label0_01.jpg,-0.107,-0.061,0.031,0.27,0.05,0.64,0.0,0.0,0.0,0.01,0.0,0.0,0.0,0.01,0.26,0.0,0.0,0.02,0.14,0.07,0.073,0.1,1,1,32,0,1
cropped_image_Sub01_Trial01_Sweep32_Label0_05.jpg,-0.115,-0.06,0.027,0.1,0.0,0.49,0.0,0.0,0.0,0.0,0.0,0.0,0.0,0.04,0.19,0.0,0.0,0.05,0.07,0.08,0.064,0.063,1,1,32,0,5
cropped_image_Sub01_Trial01_Sweep32_Label0_09.jpg,-0.114,-0.06,0.031,0.07,0.0,0.48,0.0,0.0,0.0,0.02,0.0,0.0,0.0,0.05,0.29,0.01,0.0,0.07,0.17,0.0,0.075,0.071,1,1,32,0,9
cropped_image_Sub01_Trial01_Sweep32_Label0_13.jpg,-0.118,-0.057,0.029,0.05,0.0,0.61,0.0,0.0,0.0,0.0,0.0,0.0,0.0,0.23,0.25,0.0,0.05,0.05,0.15,0.02,0.071,0.065,1,1,32,0,13
cropped_image_Sub01_Trial01_Sweep32_Label0_17.jpg,-0.117,-0.056,0.029,0.06,0.0,0.59,0.0,0.0,0.0,0.02,0.0,0.0,0.0,0.09,0.42,0.03,0.01,0.0,0.14,0.0,0.063,0.054,1,1,32,0,17
cropped_image_Sub01_Trial01_Sweep32_Label0_21.jpg,-0.113,-0.055,0.029,0.07,0.0,0.52,0.0,0.0,0.0,0.03,0.0,0.0,0.0,0.0,0.2,0.01,0.01,0.0,0.12,0.0,0.064,0.061,1,1,32,0,21
cropped_image_Sub01_Trial01_Sweep32_Label0_25.jpg,-0.117,-0.052,0.031,0.03,0.0,0.42,0.0,0.0,0.0,0.01,0.0,0.0,0.0,0.02,0.34,0.0,0.0,0.0,0.07,0.03,0.074,0.055,1,1,32,0,25
cropped_image_Sub01_Trial01_Sweep32_Label2_01.jpg,-0.136,-0.053,0.042,0.15,0.0,0.57,0.0,0.0,0.0,0.02,0.0,0.0,0.0,0.04,0.19,0.04,0.01,0.04,0.2,0.01,0.059,0.022,1,1,32,2,1
cropped_image_Sub01_Trial01_Sweep32_Label2_05.jpg,-0.136,-0.06,0.042,0.23,0.04,0.46,0.0,0.0,0.0,0.03,0.0,0.0,0.0,0.0,0.04,0.08,0.04,0.06,0.06,0.08,0.083,0.039,1,1,32,2,5
cropped_image_Sub01_Trial01_Sweep32_Label2_09.jpg,-0.135,-0.055,0.041,0.18,0.07,0.53,0.0,0.0,0.0,0.14,0.0,0.0,0.0,0.0,0.05,0.0,0.0,0.02,0.15,0.0,0.067,0.03,1,1,32,2,9
cropped_image_Sub01_Trial01_Sweep32_Label2_13.jpg,-0.128,-0.054,0.041,0.17,0.06,0.59,0.0,0.0,0.0,0.07,0.0,0.0,0.0,0.0,0.02,0.0,0.0,0.14,0.13,0.04,0.063,0.033,1,1,32,2,13
cropped_image_Sub01_Trial01_Sweep32_Label2_17.jpg,-0.123,-0.065,0.043,0.16,0.02,0.47,0.0,0.0,0.0,0.1,0.0,0.0,0.0,0.0,0.13,0.0,0.0,0.04,0.02,0.0,0.082,0.041,1,1,32,2,17
cropped_image_Sub01_Trial01_Sweep32_Label2_21.jpg,-0.119,-0.072,0.041,0.18,0.03,0.5,0.0,0.0,0.0,0.12,0.0,0.0,0.0,0.05,0.12,0.09,0.0,0.1,0.08,0.0,0.074,0.042,1,1,32,2,21
cropped_image_Sub01_Trial01_Sweep32_Label2_25.jpg,-0.13,-0.05,0.047,0.07,0.0,0.5,0.0,0.0,0.0,0.03,0.0,0.0,0.0,0.12,0.25,0.06,0.02,0.13,0.3,0.0,0.029,0.045,1,1,32,2,25
cropped_image_Sub01_Trial01_Sweep33_Label0_01.jpg,-0.137,-0.057,0.037,0.19,0.0,0.53,0.0,0.0,0.0,0.0,0.0,0.0,0.0,0.02,0.36,0.05,0.01,0.04,0.14,0.0,0.07,0.026,1,1,33,0,1
cropped_image_Sub01_Trial01_Sweep33_Label0_05.jpg,-0.123,-0.068,0.035,0.26,0.05,0.52,0.0,0.0,0.0,0.03,0.0,0.0,0.0,0.05,0.2,0.08,0.0,0.0,0.05,0.0,0.073,0.054,1,1,33,0,5
cropped_image_Sub01_Trial01_Sweep33_Label0_09.jpg,-0.141,-0.046,0.037,0.23,0.15,0.52,0.0,0.0,0.0,0.08,0.0,0.0,0.0,0.0,0.08,0.06,0.0,0.04,0.13,0.01,0.07,0.056,1,1,33,0,9
cropped_image_Sub01_Trial01_Sweep33_Label0_13.jpg,-0.129,-0.056,0.037,0.13,0.03,0.52,0.0,0.0,0.0,0.03,0.0,0.0,0.0,0.1,0.18,0.11,0.0,0.0,0.0,0.0,0.063,0.055,1,1,33,0,13
cropped_image_Sub01_Trial01_Sweep33_Label0_16.jpg,-0.121,-0.063,0.038,0.18,0.07,0.42,0.0,0.0,0.0,0.08,0.0,0.0,0.0,0.0,0.2,0.04,0.0,0.08,0.01,0.0,0.065,0.037,1,1,33,0,16
cropped_image_Sub01_Trial01_Sweep33_Label0_20.jpg,-0.126,-0.051,0.038,0.15,0.05,0.4,0.0,0.0,0.0,0.04,0.0,0.0,0.0,0.0,0.06,0.0,0.0,0.1,0.12,0.0,0.063,0.05,1,1,33,0,20
cropped_image_Sub01_Trial01_Sweep33_Label0_24.jpg,-0.125,-0.057,0.038,0.15,0.04,0.62,0.0,0.0,0.0,0.02,0.0,0.0,0.0,0.03,0.28,0.14,0.0,0.02,0.04,0.0,0.068,0.027,1,1,33,0,24
cropped_image_Sub01_Trial01_Sweep33_Label2_01.jpg,-0.081,-0.051,0.037,0.06,0.0,0.46,0.0,0.0,0.0,0.0,0.0,0.0,0.0,0.16,0.31,0.04,0.06,0.13,0.08,0.0,0.045,0.058,1,1,33,2,1
cropped_image_Sub01_Trial01_Sweep33_Label2_05.jpg,-0.068,-0.042,0.035,0.0,0.02,0.36,0.0,0.0,0.0,0.0,0.0,0.0,0.0,0.22,0.48,0.04,0.0,0.05,0.13,0.0,0.042,0.061,1,1,33,2,5
cropped_image_Sub01_Trial01_Sweep33_Label2_09.jpg,-0.068,-0.051,0.033,0.0,0.0,0.36,0.0,0.0,0.0,0.0,0.0,0.0,0.0,0.02,0.41,0.01,0.03,0.12,0.02,0.0,0.054,0.086,1,1,33,2,9
cropped_image_Sub01_Trial01_Sweep33_Label2_13.jpg,-0.07,-0.042,0.035,0.0,0.0,0.5,0.0,0.0,0.0,0.0,0.0,0.0,0.0,0.0,0.34,0.01,0.0,0.11,0.04,0.0,0.029,0.081,1,1,33,2,13
cropped_image_Sub01_Trial01_Sweep33_Label2_16.jpg,-0.073,-0.049,0.032,0.0,0.0,0.42,0.0,0.0,0.0,0.0,0.0,0.0,0.0,0.02,0.46,0.0,0.01,0.0,0.22,0.03,0.046,0.076,1,1,33,2,16
cropped_image_Sub01_Trial01_Sweep33_Label2_20.jpg,-0.072,-0.046,0.033,0.01,0.0,0.52,0.04,0.0,0.0,0.0,0.0,0.0,0.0,0.06,0.48,0.0,0.0,0.06,0.12,0.0,0.053,0.068,1,1,33,2,20
cropped_image_Sub01_Trial01_Sweep33_Label2_24.jpg,-0.07,-0.046,0.035,0.0,0.04,0.43,0.05,0.0,0.0,0.0,0.0,0.0,0.0,0.03,0.42,0.02,0.0,0.17,0.03,0.0,0.041,0.076,1,1,33,2,24
cropped_image_Sub01_Trial01_Sweep34_Label0_01.jpg,-0.124,-0.049,0.036,0.36,0.2,0.67,0.09,0.0,0.0,0.06,0.0,0.0,0.0,0.0,0.15,0.0,0.0,0.06,0.0,0.86,0.152,0.105,1,1,34,0,1
cropped_image_Sub01_Trial01_Sweep34_Label0_05.jpg,-0.121,-0.054,0.031,0.26,0.11,0.61,0.01,0.0,0.0,0.15,0.0,0.0,0.0,0.0,0.09,0.32,0.03,0.15,0.09,0.32,0.054,0.127,1,1,34,0,5
cropped_image_Sub01_Trial01_Sweep34_Label0_09.jpg,-0.119,-0.056,0.034,0.09,0.0,0.71,0.0,0.0,0.0,0.03,0.0,0.0,0.0,0.0,0.16,0.04,0.0,0.11,0.04,0.09,0.06,0.078,1,1,34,0,9
cropped_image_Sub01_Trial01_Sweep34_Label0_13.jpg,-0.122,-0.055,0.034,0.24,0.01,0.54,0.0,0.0,0.0,0.06,0.0,0.0,0.0,0.02,0.03,0.23,0.0,0.19,0.03,0.2,0.053,0.074,1,1,34,0,13
cropped_image_Sub01_Trial01_Sweep34_Label0_17.jpg,-0.123,-0.046,0.035,0.15,0.0,0.66,0.02,0.0,0.0,0.15,0.0,0.0,0.0,0.0,0.15,0.07,0.0,0.02,0.1,0.26,0.053,0.073,1,1,34,0,17
cropped_image_Sub01_Trial01_Sweep34_Label0_21.jpg,-0.119,-0.05,0.031,0.23,0.05,0.69,0.0,0.0,0.0,0.04,0.0,0.0,0.0,0.0,0.21,0.09,0.0,0.14,0.06,0.29,0.074,0.085,1,1,34,0,21
cropped_image_Sub01_Trial01_Sweep34_Label0_25.jpg,-0.121,-0.05,0.033,0.06,0.01,0.63,0.0,0.0,0.0,0.09,0.0,0.0,0.0,0.0,0.29,0.15,0.02,0.1,0.16,0.13,0.058,0.08,1,1,34,0,25
cropped_image_Sub01_Trial01_Sweep34_Label4_01.jpg,-0.109,-0.06,0.032,0.12,0.0,0.56,0.0,0.0,0.0,0.05,0.0,0.0,0.0,0.0,0.11,0.0,0.0,0.0,0.24,0.02,0.098,0.09,1,1,34,4,1
cropped_image_Sub01_Trial01_Sweep34_Label4_05.jpg,-0.115,-0.053,0.034,0.22,0.0,0.64,0.0,0.0,0.0,0.05,0.0,0.0,0.0,0.01,0.26,0.0,0.0,0.0,0.01,0.0,0.071,0.079,1,1,34,4,5
cropped_image_Sub01_Trial01_Sweep34_Label4_09.jpg,-0.111,-0.055,0.035,0.14,0.0,0.58,0.0,0.0,0.0,0.1,0.0,0.0,0.0,0.0,0.21,0.0,0.0,0.01,0.12,0.0,0.086,0.065,1,1,34,4,9
cropped_image_Sub01_Trial01_Sweep34_Label4_13.jpg,-0.111,-0.056,0.037,0.13,0.05,0.57,0.0,0.0,0.0,0.05,0.0,0.0,0.0,0.0,0.19,0.05,0.0,0.02,0.11,0.02,0.077,0.074,1,1,34,4,13
cropped_image_Sub01_Trial01_Sweep34_Label4_17.jpg,-0.113,-0.06,0.036,0.17,0.21,0.49,0.0,0.0,0.0,0.04,0.0,0.0,0.0,0.03,0.39,0.0,0.0,0.07,0.26,0.0,0.086,0.08,1,1,34,4,17
cropped_image_Sub01_Trial01_Sweep34_Label4_21.jpg,-0.107,-0.059,0.035,0.11,0.02,0.54,0.0,0.0,0.0,0.06,0.0,0.0,0.0,0.01,0.1,0.0,0.0,0.04,0.12,0.03,0.071,0.077,1,1,34,4,21
cropped_image_Sub01_Trial01_Sweep34_Label4_25.jpg,-0.113,-0.048,0.033,0.14,0.0,0.54,0.0,0.0,0.0,0.05,0.0,0.0,0.0,0.0,0.17,0.06,0.02,0.03,0.03,0.06,0.058,0.072,1,1,34,4,25
cropped_image_Sub01_Trial01_Sweep35_Label0_01.jpg,-0.05,-0.073,0.034,0.13,0.04,0.6,0.08,0.0,0.0,0.01,0.0,0.0,0.0,0.0,0.51,0.0,0.0,0.03,0.17,0.26,0.057,0.164,1,1,35,0,1
cropped_image_Sub01_Trial01_Sweep35_Label0_05.jpg,-0.054,-0.069,0.033,0.09,0.01,0.74,0.0,0.0,0.0,0.0,0.0,0.0,0.0,0.18,0.5,0.0,0.0,0.13,0.4,0.28,0.032,0.138,1,1,35,0,5
cropped_image_Sub01_Trial01_Sweep35_Label0_09.jpg,-0.066,-0.051,0.042,0.05,0.02,0.6,0.0,0.0,0.0,0.0,0.0,0.0,0.0,0.12,0.45,0.0,0.0,0.04,0.39,0.04,0.037,0.105,1,1,35,0,9
cropped_image_Sub01_Trial01_Sweep35_Label0_13.jpg,-0.069,-0.048,0.037,0.14,0.16,0.59,0.0,0.0,0.0,0.0,0.0,0.0,0.0,0.1,0.49,0.0,0.01,0.17,0.58,0.02,0.021,0.105,1,1,35,0,13
cropped_image_Sub01_Trial01_Sweep35_Label0_18.jpg,-0.063,-0.064,0.034,0.08,0.18,0.64,0.0,0.0,0.0,0.0,0.0,0.0,0.0,0.07,0.49,0.0,0.0,0.04,0.23,0.06,0.06,0.102,1,1,35,0,18
cropped_image_Sub01_Trial01_Sweep35_Label0_22.jpg,-0.072,-0.059,0.034,0.2,0.07,0.52,0.01,0.0,0.0,0.0,0.0,0.0,0.0,0.06,0.5,0.0,0.0,0.04,0.19,0.01,0.027,0.08,1,1,35,0,22
cropped_image_Sub01_Trial01_Sweep35_Label0_26.jpg,-0.073,-0.063,0.034,0.17,0.08,0.55,0.02,0.0,0.0,0.0,0.0,0.0,0.0,0.04,0.46,0.0,0.0,0.09,0.25,0.04,0.019,0.086,1,1,35,0,26
cropped_image_Sub01_Trial01_Sweep35_Label3_01.jpg,-0.072,-0.079,0.031,0.35,0.0,0.83,0.14,0.0,0.0,0.05,0.0,0.0,0.0,0.13,0.47,0.0,0.0,0.17,0.12,1.1,0.157,0.165,1,1,35,3,1
cropped_image_Sub01_Trial01_Sweep35_Label3_05.jpg,-0.073,-0.07,0.035,0.3,0.1,0.72,0.0,0.0,0.0,0.0,0.0,0.0,0.0,0.11,0.29,0.0,0.0,0.17,0.01,0.03,0.045,0.176,1,1,35,3,5
cropped_image_Sub01_Trial01_Sweep35_Label3_09.jpg,-0.082,-0.064,0.032,0.15,0.14,0.44,0.0,0.0,0.0,0.0,0.0,0.0,0.0,0.01,0.44,0.0,0.0,0.06,0.15,0.02,0.055,0.105,1,1,35,3,9
cropped_image_Sub01_Trial01_Sweep35_Label3_13.jpg,-0.082,-0.066,0.031,0.11,0.01,0.65,0.0,0.0,0.0,0.01,0.0,0.0,0.0,0.05,0.3,0.0,0.0,0.22,0.31,0.1,0.064,0.099,1,1,35,3,13
cropped_image_Sub01_Trial01_Sweep35_Label3_18.jpg,-0.075,-0.067,0.033,0.2,0.16,0.6,0.0,0.0,0.0,0.02,0.0,0.0,0.0,0.05,0.21,0.0,0.0,0.2,0.0,0.0,0.077,0.115,1,1,35,3,18
cropped_image_Sub01_Trial01_Sweep35_Label3_22.jpg,-0.08,-0.062,0.03,0.13,0.1,0.48,0.0,0.0,0.0,0.0,0.0,0.0,0.0,0.03,0.25,0.0,0.01,0.21,0.24,0.0,0.063,0.124,1,1,35,3,22
cropped_image_Sub01_Trial01_Sweep35_Label3_26.jpg,-0.087,-0.047,0.031,0.09,0.09,0.47,0.0,0.0,0.0,0.0,0.0,0.0,0.0,0.0,0.43,0.0,0.0,0.13,0.23,0.19,0.041,0.116,1,1,35,3,26
cropped_image_Sub01_Trial01_Sweep36_Label0_01.jpg,-0.102,-0.07,0.033,0.25,0.15,0.62,0.01,0.0,0.0,0.05,0.0,0.0,0.0,0.0,0.15,0.0,0.0,0.15,0.17,0.09,0.079,0.105,1,1,36,0,1
cropped_image_Sub01_Trial01_Sweep36_Label0_05.jpg,-0.1,-0.065,0.033,0.33,0.2,0.71,0.0,0.0,0.0,0.14,0.0,0.0,0.0,0.01,0.13,0.07,0.0,0.01,0.16,0.09,0.08,0.093,1,1,36,0,5
cropped_image_Sub01_Trial01_Sweep36_Label0_09.jpg,-0.102,-0.067,0.036,0.36,0.07,0.54,0.0,0.0,0.0,0.09,0.0,0.0,0.0,0.0,0.08,0.0,0.0,0.16,0.05,0.16,0.066,0.109,1,1,36,0,9
cropped_image_Sub01_Trial01_Sweep36_Label0_13.jpg,-0.102,-0.065,0.035,0.26,0.06,0.54,0.0,0.0,0.0,0.08,0.0,0.0,0.0,0.06,0.1,0.01,0.0,0.05,0.09,0.11,0.057,0.055,1,1,36,0,13
cropped_image_Sub01_Trial01_Sweep36_Label0_17.jpg,-0.096,-0.067,0.034,0.34,0.12,0.63,0.0,0.0,0.0,0.13,0.0,0.0,0.0,0.02,0.25,0.02,0.0,0.24,0.17,0.25,0.072,0.095,1,1,36,0,17
cropped_image_Sub01_Trial01_Sweep36_Label0_21.jpg,-0.102,-0.067,0.031,0.28,0.05,0.75,0.0,0.0,0.0,0.06,0.0,0.0,0.0,0.01,0.35,0.0,0.0,0.06,0.24,0.0,0.071,0.069,1,1,36,0,21
cropped_image_Sub01_Trial01_Sweep36_Label0_25.jpg,-0.091,-0.07,0.031,0.23,0.09,0.61,0.0,0.0,0.0,0.02,0.0,0.0,0.0,0.02,0.35,0.01,0.0,0.3,0.23,0.0,0.072,0.109,1,1,36,0,25
cropped_image_Sub01_Trial01_Sweep36_Label1_01.jpg,-0.091,-0.069,0.028,0.18,0.02,0.58,0.0,0.0,0.0,0.04,0.0,0.0,0.0,0.08,0.28,0.0,0.0,0.22,0.03,0.03,0.056,0.061,1,1,36,1,1
cropped_image_Sub01_Trial01_Sweep36_Label1_05.jpg,-0.103,-0.054,0.031,0.13,0.01,0.51,0.0,0.0,0.0,0.04,0.0,0.0,0.0,0.0,0.36,0.01,0.0,0.13,0.19,0.0,0.065,0.065,1,1,36,1,5
cropped_image_Sub01_Trial01_Sweep36_Label1_09.jpg,-0.098,-0.064,0.033,0.19,0.06,0.63,0.0,0.0,0.0,0.0,0.0,0.0,0.0,0.0,0.26,0.0,0.0,0.23,0.0,0.0,0.061,0.054,1,1,36,1,9
cropped_image_Sub01_Trial01_Sweep36_Label1_13.jpg,-0.103,-0.057,0.029,0.21,0.04,0.6,0.0,0.0,0.0,0.06,0.0,0.0,0.0,0.01,0.2,0.0,0.01,0.15,0.13,0.01,0.07,0.073,1,1,36,1,13
cropped_image_Sub01_Trial01_Sweep36_Label1_17.jpg,-0.096,-0.06,0.03,0.21,0.0,0.63,0.0,0.0,0.0,0.0,0.0,0.0,0.0,0.0,0.25,0.02,0.0,0.09,0.29,0.0,0.059,0.062,1,1,36,1,17
cropped_image_Sub01_Trial01_Sweep36_Label1_21.jpg,-0.081,-0.07,0.031,0.49,0.31,0.64,0.0,0.0,0.0,0.01,0.0,0.0,0.0,0.03,0.32,0.0,0.0,0.04,0.05,0.15,0.087,0.131,1,1,36,1,21
cropped_image_Sub01_Trial01_Sweep36_Label1_25.jpg,-0.077,-0.076,0.045,0.74,0.44,0.74,0.25,0.0,0.0,0.09,0.0,0.0,0.0,0.18,0.3,0.09,0.0,0.29,0.26,1.87,0.194,0.282,1,1,36,1,25
cropped_image_Sub01_Trial01_Sweep37_Label0_01.jpg,-0.058,-0.071,0.033,0.37,0.11,0.51,0.0,0.0,0.0,0.02,0.0,0.0,0.0,0.15,0.57,0.0,0.0,0.26,0.18,0.85,0.051,0.098,1,1,37,0,1
cropped_image_Sub01_Trial01_Sweep37_Label0_05.jpg,-0.06,-0.066,0.033,0.0,0.05,0.59,0.0,0.0,0.0,0.02,0.0,0.0,0.0,0.1,0.51,0.0,0.0,0.1,0.06,0.01,0.043,0.076,1,1,37,0,5
cropped_image_Sub01_Trial01_Sweep37_Label0_09.jpg,-0.062,-0.071,0.033,0.01,0.0,0.53,0.03,0.0,0.0,0.0,0.0,0.0,0.0,0.02,0.48,0.01,0.02,0.12,0.0,0.0,0.038,0.097,1,1,37,0,9
cropped_image_Sub01_Trial01_Sweep37_Label0_13.jpg,-0.059,-0.074,0.035,0.0,0.0,0.42,0.0,0.0,0.0,0.01,0.0,0.0,0.0,0.04,0.48,0.02,0.01,0.29,0.05,0.0,0.034,0.093,1,1,37,0,13
cropped_image_Sub01_Trial01_Sweep37_Label0_18.jpg,-0.052,-0.074,0.03,0.0,0.0,0.41,0.0,0.0,0.0,0.03,0.0,0.0,0.0,0.16,0.55,0.0,0.0,0.27,0.09,0.03,0.056,0.096,1,1,37,0,18
cropped_image_Sub01_Trial01_Sweep37_Label0_22.jpg,-0.059,-0.072,0.031,0.08,0.07,0.47,0.0,0.0,0.0,0.0,0.0,0.0,0.0,0.0,0.6,0.0,0.01,0.22,0.09,0.08,0.051,0.094,1,1,37,0,22
cropped_image_Sub01_Trial01_Sweep37_Label0_26.jpg,-0.066,-0.073,0.028,0.03,0.0,0.41,0.0,0.0,0.0,0.0,0.0,0.0,0.0,0.05,0.63,0.0,0.0,0.14,0.0,0.0,0.069,0.086,1,1,37,0,26
cropped_image_Sub01_Trial01_Sweep37_Label3_01.jpg,-0.065,-0.067,0.031,0.09,0.09,0.6,0.0,0.0,0.0,0.0,0.0,0.0,0.0,0.11,0.4,0.0,0.0,0.09,0.04,0.09,0.06,0.129,1,1,37,3,1
cropped_image_Sub01_Trial01_Sweep37_Label3_05.jpg,-0.059,-0.067,0.027,0.09,0.13,0.71,0.0,0.0,0.0,0.0,0.0,0.0,0.0,0.05,0.56,0.0,0.0,0.06,0.23,0.12,0.089,0.115,1,1,37,3,5
cropped_image_Sub01_Trial01_Sweep37_Label3_09.jpg,-0.059,-0.078,0.03,0.05,0.0,0.64,0.0,0.0,0.0,0.01,0.0,0.0,0.0,0.2,0.48,0.0,0.0,0.02,0.26,0.14,0.071,0.096,1,1,37,3,9
cropped_image_Sub01_Trial01_Sweep37_Label3_13.jpg,-0.059,-0.075,0.031,0.04,0.0,0.65,0.0,0.0,0.0,0.0,0.0,0.0,0.0,0.13,0.63,0.0,0.01,0.13,0.34,0.23,0.082,0.115,1,1,37,3,13
cropped_image_Sub01_Trial01_Sweep37_Label3_18.jpg,-0.064,-0.069,0.03,0.04,0.04,0.58,0.0,0.0,0.0,0.0,0.0,0.0,0.0,0.09,0.59,0.0,0.0,0.03,0.16,0.16,0.041,0.095,1,1,37,3,18
cropped_image_Sub01_Trial01_Sweep37_Label3_22.jpg,-0.056,-0.071,0.028,0.06,0.05,0.59,0.06,0.0,0.0,0.0,0.0,0.0,0.0,0.08,0.26,0.0,0.0,0.22,0.28,0.32,0.073,0.109,1,1,37,3,22
cropped_image_Sub01_Trial01_Sweep37_Label3_26.jpg,-0.048,-0.081,0.032,0.21,0.14,0.74,0.13,0.0,0.0,0.0,0.0,0.0,0.0,0.16,0.46,0.0,0.0,0.06,0.01,0.51,0.139,0.196,1,1,37,3,26
cropped_image_Sub01_Trial01_Sweep38_Label0_01.jpg,-0.067,-0.069,0.035,0.28,0.12,0.58,0.15,0.0,0.0,0.05,0.0,0.0,0.0,0.21,0.59,0.0,0.0,0.16,0.08,0.67,0.068,0.111,1,1,38,0,1
cropped_image_Sub01_Trial01_Sweep38_Label0_05.jpg,-0.074,-0.067,0.028,0.11,0.0,0.58,0.0,0.0,0.0,0.0,0.0,0.0,0.0,0.17,0.32,0.0,0.0,0.14,0.01,0.0,0.053,0.096,1,1,38,0,5
cropped_image_Sub01_Trial01_Sweep38_Label0_08.jpg,-0.073,-0.057,0.031,0.04,0.02,0.46,0.06,0.0,0.0,0.0,0.0,0.0,0.0,0.13,0.39,0.0,0.0,0.23,0.11,0.09,0.07,0.089,1,1,38,0,8
cropped_image_Sub01_Trial01_Sweep38_Label0_12.jpg,-0.075,-0.058,0.031,0.03,0.05,0.47,0.01,0.0,0.0,0.0,0.0,0.0,0.0,0.12,0.56,0.01,0.0,0.14,0.19,0.0,0.078,0.074,1,1,38,0,12
cropped_image_Sub01_Trial01_Sweep38_Label0_16.jpg,-0.067,-0.068,0.03,0.06,0.17,0.5,0.0,0.0,0.0,0.01,0.0,0.0,0.0,0.02,0.65,0.0,0.0,0.16,0.07,0.0,0.055,0.1,1,1,38,0,16
cropped_image_Sub01_Trial01_Sweep38_Label0_20.jpg,-0.066,-0.069,0.028,0.0,0.06,0.49,0.0,0.0,0.0,0.0,0.0,0.0,0.0,0.16,0.59,0.03,0.0,0.02,0.13,0.02,0.058,0.089,1,1,38,0,20
cropped_image_Sub01_Trial01_Sweep38_Label0_23.jpg,-0.064,-0.069,0.033,0.06,0.01,0.53,0.0,0.0,0.0,0.0,0.0,0.0,0.0,0.13,0.54,0.0,0.0,0.09,0.05,0.0,0.035,0.082,1,1,38,0,23
cropped_image_Sub01_Trial01_Sweep38_Label2_01.jpg,-0.08,-0.06,0.03,0.04,0.01,0.49,0.0,0.0,0.0,0.0,0.0,0.0,0.0,0.06,0.42,0.0,0.0,0.0,0.09,0.09,0.075,0.109,1,1,38,2,1
cropped_image_Sub01_Trial01_Sweep38_Label2_05.jpg,-0.075,-0.061,0.03,0.09,0.1,0.61,0.05,0.0,0.0,0.0,0.0,0.0,0.0,0.19,0.46,0.0,0.0,0.11,0.05,0.02,0.08,0.094,1,1,38,2,5
cropped_image_Sub01_Trial01_Sweep38_Label2_08.jpg,-0.069,-0.06,0.03,0.06,0.08,0.39,0.0,0.0,0.0,0.0,0.0,0.0,0.0,0.01,0.44,0.07,0.0,0.12,0.0,0.02,0.058,0.113,1,1,38,2,8
cropped_image_Sub01_Trial01_Sweep38_Label2_12.jpg,-0.068,-0.059,0.03,0.04,0.0,0.47,0.0,0.0,0.0,0.0,0.0,0.0,0.0,0.2,0.49,0.0,0.0,0.07,0.0,0.04,0.043,0.119,1,1,38,2,12
cropped_image_Sub01_Trial01_Sweep38_Label2_16.jpg,-0.063,-0.066,0.033,0.13,0.12,0.53,0.0,0.0,0.0,0.0,0.0,0.0,0.0,0.13,0.55,0.0,0.0,0.09,0.0,0.03,0.052,0.113,1,1,38,2,16
cropped_image_Sub01_Trial01_Sweep38_Label2_20.jpg,-0.065,-0.063,0.033,0.01,0.03,0.36,0.0,0.0,0.0,0.0,0.0,0.0,0.0,0.1,0.54,0.0,0.0,0.15,0.0,0.02,0.081,0.09,1,1,38,2,20
cropped_image_Sub01_Trial01_Sweep38_Label2_23.jpg,-0.071,-0.055,0.029,0.05,0.06,0.47,0.0,0.0,0.0,0.0,0.0,0.0,0.0,0.01,0.51,0.0,0.0,0.1,0.14,0.06,0.048,0.08,1,1,38,2,23
cropped_image_Sub01_Trial01_Sweep39_Label0_01.jpg,-0.107,-0.043,0.029,0.11,0.0,0.55,0.04,0.0,0.0,0.03,0.0,0.0,0.0,0.01,0.47,0.01,0.0,0.03,0.04,0.01,0.047,0.055,1,1,39,0,1
cropped_image_Sub01_Trial01_Sweep39_Label0_05.jpg,-0.106,-0.057,0.032,0.14,0.0,0.68,0.0,0.0,0.0,0.0,0.0,0.0,0.0,0.05,0.42,0.0,0.02,0.07,0.09,0.0,0.062,0.07,1,1,39,0,5
cropped_image_Sub01_Trial01_Sweep39_Label0_09.jpg,-0.099,-0.051,0.032,0.11,0.0,0.5,0.0,0.0,0.0,0.0,0.0,0.0,0.0,0.02,0.44,0.0,0.0,0.07,0.16,0.0,0.076,0.08,1,1,39,0,9
cropped_image_Sub01_Trial01_Sweep39_Label0_13.jpg,-0.098,-0.058,0.031,0.08,0.0,0.51,0.0,0.0,0.0,0.0,0.0,0.0,0.0,0.02,0.46,0.03,0.0,0.0,0.03,0.0,0.078,0.088,1,1,39,0,13
cropped_image_Sub01_Trial01_Sweep39_Label0_16.jpg,-0.092,-0.057,0.033,0.05,0.04,0.42,0.0,0.0,0.0,0.0,0.0,0.0,0.0,0.04,0.47,0.06,0.0,0.12,0.19,0.0,0.081,0.084,1,1,39,0,16
cropped_image_Sub01_Trial01_Sweep39_Label0_20.jpg,-0.09,-0.058,0.031,0.13,0.05,0.62,0.0,0.0,0.0,0.01,0.0,0.0,0.0,0.0,0.42,0.02,0.0,0.1,0.0,0.06,0.066,0.101,1,1,39,0,20
cropped_image_Sub01_Trial01_Sweep39_Label0_24.jpg,-0.109,-0.047,0.032,0.06,0.0,0.53,0.0,0.0,0.0,0.0,0.0,0.0,0.0,0.0,0.42,0.0,0.0,0.01,0.11,0.0,0.079,0.077,1,1,39,0,24
cropped_image_Sub01_Trial01_Sweep39_Label4_01.jpg,-0.102,-0.047,0.03,0.12,0.0,0.56,0.0,0.0,0.0,0.02,0.0,0.0,0.0,0.05,0.56,0.0,0.0,0.0,0.38,0.07,0.068,0.088,1,1,39,4,1
cropped_image_Sub01_Trial01_Sweep39_Label4_05.jpg,-0.11,-0.048,0.03,0.16,0.0,0.5,0.0,0.0,0.0,0.0,0.0,0.0,0.0,0.05,0.61,0.07,0.02,0.0,0.07,0.0,0.06,0.072,1,1,39,4,5
cropped_image_Sub01_Trial01_Sweep39_Label4_09.jpg,-0.1,-0.061,0.031,0.05,0.09,0.43,0.0,0.0,0.0,0.0,0.0,0.0,0.0,0.03,0.61,0.06,0.0,0.09,0.11,0.03,0.064,0.062,1,1,39,4,9
cropped_image_Sub01_Trial01_Sweep39_Label4_13.jpg,-0.099,-0.06,0.032,0.09,0.0,0.54,0.0,0.0,0.0,0.0,0.0,0.0,0.0,0.03,0.41,0.0,0.0,0.04,0.14,0.0,0.076,0.075,1,1,39,4,13
cropped_image_Sub01_Trial01_Sweep39_Label4_16.jpg,-0.102,-0.051,0.033,0.07,0.0,0.52,0.01,0.0,0.0,0.04,0.0,0.0,0.0,0.05,0.3,0.12,0.0,0.04,0.16,0.05,0.074,0.089,1,1,39,4,16
cropped_image_Sub01_Trial01_Sweep39_Label4_20.jpg,-0.098,-0.06,0.037,0.0,0.01,0.51,0.0,0.0,0.0,0.0,0.0,0.0,0.0,0.02,0.4,0.01,0.0,0.0,0.07,0.01,0.083,0.083,1,1,39,4,20
cropped_image_Sub01_Trial01_Sweep39_Label4_24.jpg,-0.074,-0.073,0.05,0.4,0.32,0.6,0.06,0.0,0.0,0.09,0.0,0.0,0.0,0.09,0.39,0.0,0.0,0.23,0.47,0.92,0.181,0.293,1,1,39,4,24
cropped_image_Sub01_Trial01_Sweep40_Label0_01.jpg,-0.071,-0.074,0.044,0.37,0.21,0.49,0.02,0.0,0.0,0.03,0.0,0.0,0.0,0.09,0.36,0.01,0.0,0.17,0.09,0.66,0.079,0.076,1,1,40,0,1
cropped_image_Sub01_Trial01_Sweep40_Label0_05.jpg,-0.068,-0.069,0.042,0.44,0.16,0.77,0.1,0.0,0.0,0.09,0.0,0.0,0.0,0.22,0.44,0.0,0.0,0.2,0.12,0.98,0.162,0.172,1,1,40,0,5
cropped_image_Sub01_Trial01_Sweep40_Label0_09.jpg,-0.062,-0.077,0.04,0.09,0.07,0.7,0.01,0.0,0.0,0.01,0.0,0.0,0.0,0.01,0.59,0.0,0.0,0.07,0.26,0.12,0.08,0.157,1,1,40,0,9
cropped_image_Sub01_Trial01_Sweep40_Label0_13.jpg,-0.07,-0.062,0.043,0.09,0.18,0.54,0.0,0.0,0.0,0.0,0.0,0.0,0.0,0.1,0.58,0.0,0.0,0.09,0.13,0.08,0.081,0.103,1,1,40,0,13
cropped_image_Sub01_Trial01_Sweep40_Label0_16.jpg,-0.061,-0.075,0.043,0.02,0.03,0.53,0.02,0.0,0.0,0.0,0.0,0.0,0.0,0.1,0.58,0.0,0.0,0.11,0.11,0.04,0.06,0.088,1,1,40,0,16
cropped_image_Sub01_Trial01_Sweep40_Label0_20.jpg,-0.053,-0.082,0.042,0.15,0.08,0.61,0.0,0.0,0.0,0.0,0.0,0.0,0.0,0.41,0.7,0.0,0.0,0.05,0.16,0.0,0.07,0.108,1,1,40,0,20
cropped_image_Sub01_Trial01_Sweep40_Label0_24.jpg,-0.068,-0.061,0.041,0.05,0.09,0.51,0.0,0.0,0.0,0.0,0.0,0.0,0.0,0.1,0.52,0.0,0.0,0.08,0.21,0.04,0.051,0.096,1,1,40,0,24
cropped_image_Sub01_Trial01_Sweep40_Label1_01.jpg,-0.081,-0.059,0.036,0.07,0.0,0.55,0.0,0.0,0.0,0.02,0.0,0.0,0.0,0.05,0.32,0.0,0.0,0.04,0.03,0.07,0.043,0.091,1,1,40,1,1
cropped_image_Sub01_Trial01_Sweep40_Label1_05.jpg,-0.083,-0.061,0.034,0.03,0.06,0.54,0.0,0.0,0.0,0.01,0.0,0.0,0.0,0.08,0.4,0.0,0.0,0.2,0.12,0.05,0.061,0.083,1,1,40,1,5
cropped_image_Sub01_Trial01_Sweep40_Label1_09.jpg,-0.088,-0.054,0.038,0.0,0.03,0.5,0.0,0.0,0.0,0.0,0.0,0.0,0.0,0.04,0.49,0.0,0.02,0.06,0.23,0.01,0.04,0.083,1,1,40,1,9
cropped_image_Sub01_Trial01_Sweep40_Label1_13.jpg,-0.081,-0.054,0.034,0.08,0.05,0.64,0.0,0.0,0.0,0.02,0.0,0.0,0.0,0.09,0.31,0.0,0.0,0.1,0.21,0.04,0.048,0.098,1,1,40,1,13
cropped_image_Sub01_Trial01_Sweep40_Label1_16.jpg,-0.082,-0.055,0.037,0.14,0.1,0.54,0.0,0.0,0.0,0.0,0.0,0.0,0.0,0.06,0.33,0.0,0.0,0.21,0.42,0.09,0.042,0.099,1,1,40,1,16
cropped_image_Sub01_Trial01_Sweep40_Label1_20.jpg,-0.066,-0.064,0.035,0.13,0.08,0.63,0.05,0.0,0.0,0.02,0.0,0.0,0.0,0.0,0.44,0.03,0.0,0.06,0.26,0.21,0.066,0.126,1,1,40,1,20
cropped_image_Sub01_Trial01_Sweep40_Label1_24.jpg,-0.054,-0.081,0.049,0.78,0.44,0.64,0.17,0.0,0.0,0.21,0.0,0.0,0.0,0.09,0.48,0.04,0.0,0.35,0.28,1.53,0.196,0.302,1,1,40,1,24
cropped_image_Sub01_Trial02_Sweep01_Label0_01.jpg,-0.128,-0.031,0.034,0.62,0.2,0.4,0.0,0.17,0.56,0.29,0.24,0.0,0.1,0.19,0.33,0.48,0.43,0.15,0.2,0.71,0.068,0.13,1,2,1,0,1
cropped_image_Sub01_Trial02_Sweep01_Label0_02.jpg,-0.15,-0.028,0.033,0.29,0.0,0.41,0.0,0.26,0.81,0.44,0.29,0.0,0.23,0.0,0.0,0.73,0.68,0.0,0.04,0.0,0.063,0.095,1,2,1,0,2
cropped_image_Sub01_Trial02_Sweep01_Label0_03.jpg,-0.152,-0.025,0.033,0.3,0.0,0.35,0.0,0.26,0.73,0.41,0.31,0.0,0.2,0.0,0.0,0.85,0.71,0.0,0.04,0.0,0.08,0.099,1,2,1,0,3
cropped_image_Sub01_Trial02_Sweep01_Label0_04.jpg,-0.153,-0.027,0.031,0.3,0.0,0.33,0.0,0.29,0.75,0.49,0.29,0.0,0.15,0.0,0.0,0.77,0.73,0.0,0.08,0.0,0.049,0.102,1,2,1,0,4
cropped_image_Sub01_Trial02_Sweep01_Label0_06.jpg,-0.153,-0.03,0.028,0.27,0.0,0.47,0.0,0.31,0.67,0.61,0.25,0.0,0.13,0.0,0.0,0.8,0.67,0.0,0.09,0.07,0.079,0.106,1,2,1,0,6
cropped_image_Sub01_Trial02_Sweep01_Label0_07.jpg,-0.156,-0.019,0.032,0.24,0.0,0.48,0.0,0.26,0.6,0.57,0.22,0.0,0.15,0.0,0.0,0.82,0.58,0.0,0.05,0.08,0.044,0.099,1,2,1,0,7
cropped_image_Sub01_Trial02_Sweep01_Label0_08.jpg,-0.148,-0.035,0.027,0.25,0.0,0.41,0.0,0.15,0.65,0.44,0.15,0.0,0.1,0.0,0.0,0.62,0.54,0.0,0.05,0.03,0.07,0.085,1,2,1,0,8
cropped_image_Sub01_Trial02_Sweep01_Label4_01.jpg,-0.146,-0.039,0.028,0.24,0.0,0.4,0.0,0.07,0.7,0.41,0.1,0.0,0.04,0.0,0.0,0.53,0.44,0.0,0.0,0.02,0.058,0.08,1,2,1,4,1
cropped_image_Sub01_Trial02_Sweep01_Label4_02.jpg,-0.147,-0.044,0.025,0.27,0.0,0.39,0.0,0.04,0.74,0.38,0.0,0.0,0.0,0.0,0.0,0.54,0.46,0.0,0.0,0.06,0.077,0.097,1,2,1,4,2
cropped_image_Sub01_Trial02_Sweep01_Label4_03.jpg,-0.148,-0.039,0.029,0.32,0.0,0.47,0.0,0.04,0.75,0.41,0.0,0.0,0.0,0.0,0.0,0.67,0.51,0.0,0.0,0.07,0.072,0.065,1,2,1,4,3
cropped_image_Sub01_Trial02_Sweep01_Label4_04.jpg,-0.157,-0.032,0.033,0.29,0.0,0.43,0.0,0.04,0.72,0.31,0.0,0.0,0.0,0.0,0.0,0.73,0.56,0.0,0.0,0.06,0.048,0.072,1,2,1,4,4
cropped_image_Sub01_Trial02_Sweep01_Label4_06.jpg,-0.143,-0.039,0.031,0.17,0.0,0.56,0.0,0.0,0.36,0.31,0.0,0.0,0.0,0.0,0.0,0.57,0.63,0.0,0.0,0.02,0.066,0.116,1,2,1,4,6
cropped_image_Sub01_Trial02_Sweep01_Label4_07.jpg,-0.143,-0.047,0.029,0.12,0.0,0.63,0.0,0.0,0.28,0.36,0.0,0.0,0.0,0.0,0.0,0.5,0.64,0.0,0.0,0.02,0.085,0.111,1,2,1,4,7
cropped_image_Sub01_Trial02_Sweep01_Label4_08.jpg,-0.135,-0.048,0.027,0.33,0.24,0.54,0.14,0.0,0.15,0.43,0.0,0.0,0.18,0.0,0.16,0.33,0.84,0.0,0.03,0.25,0.076,0.108,1,2,1,4,8
cropped_image_Sub01_Trial02_Sweep02_Label0_01.jpg,0.026,-0.115,0.006,0.42,0.56,0.56,0.3,0.0,0.14,0.61,0.0,0.0,0.26,0.0,0.41,0.14,1.05,0.08,0.05,0.46,0.122,0.329,1,2,2,0,1
cropped_image_Sub01_Trial02_Sweep02_Label0_02.jpg,0.097,-0.117,0.012,0.37,0.58,0.37,0.55,0.0,0.0,0.73,0.0,0.0,0.31,0.0,0.77,0.0,1.11,0.08,0.05,0.71,0.122,0.413,1,2,2,0,2
cropped_image_Sub01_Trial02_Sweep02_Label0_03.jpg,0.165,-0.113,0.013,0.26,0.37,0.27,0.51,0.0,0.0,0.79,0.0,0.0,0.2,0.1,0.92,0.0,0.88,0.15,0.03,0.71,0.127,0.448,1,2,2,0,3
cropped_image_Sub01_Trial02_Sweep02_Label0_04.jpg,0.185,-0.114,0.005,0.19,0.06,0.22,0.36,0.0,0.0,0.85,0.0,0.0,0.28,0.27,0.99,0.0,0.74,0.07,0.0,0.75,0.104,0.468,1,2,2,0,4
cropped_image_Sub01_Trial02_Sweep02_Label0_06.jpg,0.193,-0.109,0.011,0.12,0.04,0.41,0.31,0.0,0.0,0.83,0.0,0.0,0.44,0.23,1.0,0.0,0.67,0.14,0.0,0.56,0.135,0.487,1,2,2,0,6
cropped_image_Sub01_Trial02_Sweep02_Label0_07.jpg,0.172,-0.107,0.014,0.05,0.13,0.41,0.57,0.0,0.0,0.73,0.0,0.0,0.38,0.06,0.9,0.0,0.56,0.14,0.0,0.53,0.122,0.468,1,2,2,0,7
cropped_image_Sub01_Trial02_Sweep02_Label0_08.jpg,0.172,-0.099,0.015,0.04,0.12,0.53,0.58,0.0,0.0,0.52,0.0,0.0,0.24,0.06,0.75,0.07,0.33,0.13,0.0,0.8,0.115,0.463,1,2,2,0,8
cropped_image_Sub01_Trial02_Sweep02_Label2_01.jpg,0.053,-0.037,0.029,0.04,0.09,0.55,0.5,0.0,0.0,0.27,0.0,0.0,0.1,0.0,0.76,0.11,0.15,0.22,0.0,1.1,0.087,0.395,1,2,2,2,1
cropped_image_Sub01_Trial02_Sweep02_Label2_02.jpg,0.026,-0.042,0.034,0.09,0.0,0.6,0.47,0.0,0.0,0.04,0.0,0.0,0.0,0.0,0.77,0.16,0.05,0.29,0.14,1.41,0.022,0.339,1,2,2,2,2
cropped_image_Sub01_Trial02_Sweep02_Label2_03.jpg,0.012,-0.045,0.039,0.16,0.01,0.62,0.42,0.0,0.0,0.01,0.0,0.0,0.0,0.0,0.78,0.2,0.07,0.17,0.16,1.51,0.022,0.337,1,2,2,2,3
cropped_image_Sub01_Trial02_Sweep02_Label2_04.jpg,0.011,-0.045,0.038,0.16,0.01,0.65,0.58,0.0,0.0,0.02,0.0,0.0,0.0,0.0,0.77,0.16,0.14,0.19,0.16,1.48,0.088,0.372,1,2,2,2,4
cropped_image_Sub01_Trial02_Sweep02_Label2_06.jpg,0.02,-0.053,0.037,0.17,0.0,0.61,0.61,0.0,0.0,0.01,0.0,0.0,0.0,0.0,0.78,0.11,0.21,0.25,0.13,1.61,0.098,0.353,1,2,2,2,6
cropped_image_Sub01_Trial02_Sweep02_Label2_07.jpg,0.021,-0.047,0.038,0.27,0.09,0.62,0.47,0.0,0.0,0.0,0.0,0.0,0.0,0.0,0.67,0.22,0.14,0.16,0.13,1.77,0.046,0.339,1,2,2,2,7
cropped_image_Sub01_Trial02_Sweep02_Label2_08.jpg,0.006,-0.048,0.036,0.26,0.09,0.66,0.55,0.0,0.0,0.0,0.0,0.0,0.0,0.0,0.66,0.14,0.08,0.15,0.06,1.6,0.061,0.35,1,2,2,2,8
cropped_image_Sub01_Trial02_Sweep03_Label0_01.jpg,0.005,-0.052,0.015,0.22,0.09,0.71,0.46,0.0,0.0,0.0,0.0,0.0,0.0,0.0,0.62,0.2,0.02,0.22,0.03,1.64,0.069,0.335,1,2,3,0,1
cropped_image_Sub01_Trial02_Sweep03_Label0_02.jpg,0.0,-0.037,0.016,0.23,0.04,0.7,0.4,0.0,0.0,0.0,0.0,0.0,0.0,0.0,0.66,0.17,0.02,0.33,0.03,1.55,0.081,0.316,1,2,3,0,2
cropped_image_Sub01_Trial02_Sweep03_Label0_03.jpg,0.009,-0.041,0.016,0.19,0.13,0.68,0.38,0.0,0.0,0.0,0.0,0.0,0.0,0.0,0.57,0.3,0.0,0.4,0.03,1.64,0.085,0.331,1,2,3,0,3
cropped_image_Sub01_Trial02_Sweep03_Label0_04.jpg,0.014,-0.045,0.016,0.29,0.13,0.69,0.35,0.0,0.0,0.0,0.0,0.0,0.0,0.0,0.59,0.25,0.0,0.4,0.01,1.58,0.064,0.349,1,2,3,0,4
cropped_image_Sub01_Trial02_Sweep03_Label0_06.jpg,0.016,-0.041,0.02,0.44,0.04,0.61,0.65,0.0,0.0,0.0,0.0,0.0,0.0,0.05,0.7,0.15,0.0,0.47,0.01,2.12,0.084,0.38,1,2,3,0,6
